svm_type epsilon_svr
kernel_type rbf
gamma 0.05
nr_class 2
total_sv 1730
rho -51.4722
probA 4.91789
SV
1024 1:-0.341023 2:0.812765 3:-0.873151 4:-0.956802 5:-0.768759 6:0.338924 7:0.933784 8:0.783261 9:0.0910201 10:0.942768 11:0.829359 12:-0.673503 
1024 1:0.436554 2:0.880742 3:-0.888728 4:-0.976863 5:-0.781869 6:0.873997 7:0.992501 8:0.88128 9:0.867846 10:0.999226 11:0.937196 12:-0.758164 
1024 1:-0.202131 2:0.91335 3:-0.678191 4:-0.881435 5:-0.380482 6:-0.00859377 7:0.413651 8:0.656453 9:-0.926474 10:0.470582 11:0.536157 12:-0.673071 
-1024 1:0.0292017 2:0.888441 3:-0.847585 4:-0.949504 5:-0.698959 6:0.395493 7:0.895338 8:0.803619 9:-0.0893655 10:0.933744 11:0.808854 12:-0.689002 
1024 1:0.150061 2:0.875509 3:-0.802944 4:-0.920068 5:-0.612861 6:0.548788 7:0.712538 8:0.859278 9:-0.0220498 10:0.96352 11:0.817798 12:-0.717564 
1024 1:0.0647364 2:0.874393 3:-0.715043 4:-0.932346 5:-0.559673 6:0.128948 7:0.77512 8:0.681541 9:0.0225015 10:0.611234 11:0.791083 12:-0.732019 
1024 1:0.477062 2:-0.272955 3:-0.843557 4:-0.773824 5:-0.693931 6:0.0756691 7:0.41474 8:0.394064 9:0.00120527 10:0.151834 11:0.583182 12:-0.651622 
1024 1:-0.433217 2:0.689491 3:-0.55687 4:-0.83687 5:-0.272094 6:0.202617 7:-0.0547184 8:0.939132 9:-0.0533202 10:0.241848 11:0.93868 12:-0.874147 
1024 1:-0.100059 2:0.562056 3:-0.836372 4:-0.959914 5:-0.732997 6:0.899588 7:0.921508 8:0.821098 9:0.900635 10:0.883109 11:0.909739 12:-0.880514 
-1024 1:-0.281183 2:0.838911 3:-0.136781 4:-0.71754 5:0.291647 6:-0.443623 7:-0.745464 8:0.863185 9:-0.772563 10:-0.500146 11:0.859511 12:-0.869613 
1024 1:-0.379661 2:0.734 3:-0.453027 4:-0.790718 5:-0.14082 6:-0.0371056 7:-0.382992 8:0.919117 9:-0.370953 10:-0.0723849 11:0.91427 12:-0.876788 
1024 1:-0.182276 2:0.716459 3:-0.527273 4:-0.871364 5:-0.287992 6:0.106875 7:0.236443 8:0.922613 9:-0.0296156 10:0.420558 11:0.939735 12:-0.875297 
1024 1:0.241546 2:0.527702 3:-0.539431 4:-0.920409 5:-0.40535 6:0.1205 7:0.682136 8:0.753924 9:-0.0149519 10:0.627823 11:0.881696 12:-0.859894 
-1024 1:-0.241812 2:0.58866 3:-0.607376 4:-0.879293 5:-0.353015 6:0.337698 7:0.352061 8:0.0593598 9:-0.195132 10:0.0640039 11:0.0392329 12:-0.650931 
-1024 1:-0.457562 2:0.857033 3:-0.711344 4:-0.88177 5:-0.550666 6:0.667485 7:0.890066 8:0.882925 9:0.425425 10:0.920498 11:0.906146 12:-0.604683 
-1024 1:-0.310332 2:0.71895 3:-0.745295 4:-0.906213 5:-0.592622 6:0.720789 7:0.946138 8:0.543423 9:0.63724 10:0.942991 11:0.626145 12:-0.733277 
-1024 1:-0.4135 2:0.833404 3:-0.533279 4:-0.797411 5:-0.343497 6:0.39369 7:0.401787 8:0.866338 9:-0.519861 10:0.305019 11:0.784404 12:-0.695501 
-1024 1:-0.388821 2:0.793834 3:-0.715858 4:-0.882986 5:-0.574818 6:0.687746 7:0.902934 8:0.873192 9:0.444149 10:0.896559 11:0.89767 12:-0.598268 
-1024 1:-0.308422 2:0.947193 3:-0.610202 4:-0.791268 5:-0.423021 6:0.628796 7:0.543738 8:0.920762 9:0.325007 10:0.70128 11:0.924307 12:-0.666365 
-1024 1:-0.453694 2:0.855008 3:-0.428809 4:-0.780866 5:-0.300967 6:0.305005 7:0.41577 8:0.726986 9:0.211571 10:-0.160504 11:0.899779 12:-0.719166 
-1024 1:-0.330481 2:-0.303874 3:-0.83242 4:-0.694455 5:-0.7206 6:-0.677541 7:0.09376 8:-0.266502 9:-0.129432 10:0.697759 11:0.688597 12:-0.445263 
1024 1:-0.227659 2:0.806254 3:-0.785737 4:-0.944242 5:-0.582742 6:0.388693 7:0.923281 8:0.711564 9:-0.17119 10:0.949351 11:0.656492 12:-0.291715 
-1024 1:-0.189853 2:0.61512 3:-0.869214 4:-0.966722 5:-0.764489 6:0.904933 7:0.990614 8:0.871616 9:0.911492 10:0.995016 11:0.931494 12:-0.592786 
1024 1:-0.289127 2:0.884311 3:-0.57076 4:-0.848619 5:-0.259308 6:-0.184021 7:0.218369 8:0.692028 9:-0.923923 10:0.170419 11:0.635948 12:-0.454179 
-1024 1:-0.0634912 2:0.852248 3:-0.743453 4:-0.912846 5:-0.54005 6:0.474495 7:0.769273 8:0.839811 9:0.139263 10:0.885984 11:0.92048 12:-0.420035 
-1024 1:-0.469217 2:0.627061 3:-0.719562 4:-0.920897 5:-0.532053 6:0.391285 7:0.780329 8:0.748509 9:0.275867 10:0.622279 11:0.90431 12:-0.488565 
-693.2270842217762 1:-0.22037 2:0.489076 3:-0.773516 4:-0.776195 5:-0.530618 6:-0.115594 7:0.324341 8:0.399548 9:-0.284095 10:0.748491 11:0.627981 12:-0.114667 
1024 1:-0.187444 2:0.911645 3:-0.275333 4:-0.789073 5:0.0167132 6:0.814748 7:0.779843 8:0.954692 9:0.376744 10:0.741637 11:0.932587 12:-0.808348 
1024 1:-0.298436 2:0.790466 3:-0.435 4:-0.82572 5:-0.118693 6:0.90723 7:0.826978 8:0.823497 9:0.870554 10:0.841674 11:0.92005 12:-0.86761 
1024 1:-0.358026 2:0.886026 3:-0.0306454 4:-0.656492 5:0.240271 6:0.49723 7:0.186761 8:0.915416 9:0.0242507 10:-0.139769 11:0.959185 12:-0.807994 
1024 1:-0.14198 2:0.88669 3:-0.290595 4:-0.799643 5:-1.23278e-005 6:0.813591 7:0.80945 8:0.937624 9:0.293995 10:0.746968 11:0.901576 12:-0.793141 
1024 1:-0.252251 2:0.955164 3:-0.122846 4:-0.694527 5:0.175924 6:0.662475 7:0.40088 8:0.959559 9:0.359589 10:0.328885 11:0.986799 12:-0.817768 
1024 1:-0.176661 2:0.838989 3:-0.081604 4:-0.779707 5:0.125518 6:0.59406 7:0.646831 8:0.760847 9:0.473562 10:0.426373 11:0.926807 12:-0.821069 
1024 1:-0.262973 2:-0.0238951 3:0.224748 4:0.01904 5:0.350221 6:-0.230024 7:-0.362376 8:0.0459936 9:-0.353012 10:-0.349915 11:0.847247 12:-0.775206 
1024 1:-0.727426 2:0.571109 3:-0.832926 4:-0.899504 5:-0.5345 6:0.94491 7:0.662569 8:0.959627 9:0.807753 10:0.609541 11:0.967231 12:-0.541895 
1024 1:-0.30226 2:0.63721 3:-0.876385 4:-0.964183 5:-0.640716 6:0.972692 7:0.970476 8:0.941326 9:0.993317 10:0.994991 11:0.965083 12:-0.689599 
1024 1:-0.62316 2:0.545107 3:-0.796917 4:-0.914684 5:-0.433935 6:0.836948 7:0.737899 8:0.969429 9:0.511677 10:0.634941 11:0.977581 12:-0.350785 
1024 1:-0.707698 2:0.600168 3:-0.827547 4:-0.918753 5:-0.531506 6:0.941235 7:0.775754 8:0.967167 9:0.825314 10:0.625175 11:0.964224 12:-0.543553 
1024 1:-0.565074 2:0.570005 3:-0.779935 4:-0.905226 5:-0.378716 6:0.745601 7:0.666392 8:0.936253 9:0.538617 10:0.557011 11:0.983908 12:-0.342275 
1024 1:-0.185242 2:0.614412 3:-0.74609 4:-0.942821 5:-0.377906 6:0.346089 7:0.862211 8:0.666598 9:0.00901767 10:0.740282 11:0.799481 12:-0.507678 
1024 1:-0.522875 2:0.640296 3:-0.781359 4:-0.908276 5:-0.367198 6:0.74953 7:0.69149 8:0.750154 9:0.257055 10:0.281638 11:0.687269 12:-0.0175281 
1024 1:-0.311481 2:0.922326 3:-0.331229 4:-0.726657 5:-0.0701778 6:0.885607 7:0.936769 8:0.910206 9:0.880752 10:0.942929 11:0.948796 12:-0.719565 
1024 1:-0.344114 2:0.950877 3:-0.362908 4:-0.703537 5:-0.0809778 6:0.854133 7:0.92507 8:0.840085 9:0.851424 10:0.935944 11:0.925791 12:-0.812419 
-1024 1:-0.465461 2:0.829768 3:-0.136822 4:-0.603942 5:0.155915 6:0.67927 7:0.529358 8:0.911988 9:0.214806 10:0.211695 11:0.923565 12:-0.738644 
1024 1:-0.292882 2:0.92511 3:-0.314474 4:-0.70469 5:-0.0588766 6:0.882706 7:0.953048 8:0.921516 9:0.882284 10:0.947727 11:0.954655 12:-0.729664 
1024 1:-0.426919 2:0.882773 3:-0.242461 4:-0.648928 5:0.107572 6:0.770437 7:0.644718 8:0.876619 9:0.649509 10:0.539243 11:0.965864 12:-0.744118 
-1024 1:-0.509607 2:0.970677 3:0.159144 4:-0.549759 5:0.434571 6:0.356955 7:0.186392 8:0.756597 9:0.0271037 10:-0.258943 11:0.894585 12:-0.76263 
1024 1:-0.277553 2:0.720183 3:-0.641758 4:-0.884764 5:-0.255536 6:0.857702 7:0.702151 8:0.859689 9:-0.0423114 10:0.5759 11:0.868026 12:-0.816441 
-1024 1:-0.00431264 2:0.737378 3:-0.683104 4:-0.921114 5:-0.294064 6:0.877186 7:0.859915 8:0.89307 9:0.387469 10:0.801857 11:0.932197 12:-0.91146 
1024 1:-0.288447 2:0.692904 3:-0.490891 4:-0.824646 5:0.0196913 6:0.660262 7:0.418829 8:0.948523 9:-0.369432 10:-0.140915 11:0.863144 12:-0.835023 
1024 1:-0.224138 2:0.747861 3:-0.629687 4:-0.882109 5:-0.219839 6:0.853464 7:0.671755 8:0.861608 9:0.343453 10:0.593587 11:0.928994 12:-0.816321 
1024 1:-0.210104 2:0.729659 3:-0.583696 4:-0.872093 5:-0.188416 6:0.753578 7:0.606457 8:0.957091 9:0.263294 10:0.498063 11:0.969848 12:-0.838346 
1024 1:-0.206715 2:0.73952 3:-0.475648 4:-0.861838 5:-0.0255768 6:0.498273 7:0.456243 8:0.81959 9:-0.0296226 10:0.0864253 11:0.910129 12:-0.828061 
-1024 1:-0.232635 2:0.22033 3:-0.41451 4:-0.467523 5:0.0335181 6:-0.123438 7:-0.00358652 8:0.453013 9:-0.402576 10:-0.268789 11:0.825375 12:-0.825291 
-1024 1:-0.235505 2:0.900404 3:-0.228708 4:-0.795275 5:0.041581 6:0.694124 7:0.727441 8:0.839125 9:0.17397 10:0.494928 11:0.768625 12:-0.83982 
-1024 1:-0.392253 2:0.818926 3:-0.464513 4:-0.838196 5:-0.164039 6:0.882405 7:0.829554 8:0.677085 9:0.92171 10:0.820661 11:0.777062 12:-0.881773 
1024 1:-0.369902 2:0.911187 3:-0.0428724 4:-0.729197 5:0.205591 6:0.51555 7:0.403713 8:0.93406 9:-0.0297055 10:-0.107896 11:0.97473 12:-0.858605 
1024 1:-0.191989 2:0.904669 3:-0.213413 4:-0.795466 5:0.0893612 6:0.647949 7:0.707117 8:0.772637 9:-0.00645041 10:0.458165 11:0.620755 12:-0.837153 
1024 1:-0.38713 2:0.889182 3:-0.181277 4:-0.741093 5:0.131259 6:0.706386 7:0.48583 8:0.948728 9:0.492132 10:0.325162 11:0.991837 12:-0.841529 
1024 1:-0.337015 2:0.854298 3:-0.105864 4:-0.779793 5:0.104344 6:0.542969 7:0.522708 8:0.690794 9:0.428536 10:0.238444 11:0.871932 12:-0.860218 
-852.2419446451897 1:-0.392527 2:-0.134867 3:0.0264897 4:-0.123385 5:0.211364 6:-0.501137 7:-0.256713 8:-0.579683 9:-0.42881 10:-0.171524 11:0.402738 12:-0.868615 
1024 1:-0.418388 2:0.891893 3:-0.422788 4:-0.789976 5:-0.0499628 6:0.837658 7:0.949045 8:0.626842 9:0.792345 10:0.96886 11:0.863183 12:-0.888965 
1024 1:-0.59866 2:0.802019 3:-0.430397 4:-0.742022 5:-0.0866143 6:0.876365 7:0.887744 8:0.801631 9:0.88711 10:0.881117 11:0.875681 12:-0.868256 
1024 1:-0.545461 2:0.865526 3:-0.138882 4:-0.656609 5:0.129674 6:0.747239 7:0.700193 8:0.955926 9:0.35448 10:0.243952 11:0.945789 12:-0.825049 
1024 1:-0.399434 2:0.888463 3:-0.424704 4:-0.792795 5:-0.05237 6:0.839247 7:0.948208 8:0.624512 9:0.796426 10:0.970532 11:0.860293 12:-0.88801 
1024 1:-0.461066 2:0.931797 3:-0.171687 4:-0.660445 5:0.108213 6:0.832468 7:0.725737 8:0.978957 9:0.591145 10:0.411069 11:0.988439 12:-0.846125 
1024 1:-0.689167 2:0.84289 3:-0.0661224 4:-0.588647 5:0.281947 6:0.774742 7:0.527242 8:0.834327 9:0.50259 10:-0.0966369 11:0.938641 12:-0.839564 
1024 1:-0.582162 2:-0.455698 3:-0.132333 4:0.135668 5:0.0305917 6:-0.523487 7:-0.795632 8:-0.317637 9:-0.331522 10:-0.421504 11:0.761283 12:-0.845324 
1024 1:-0.551067 2:0.744915 3:-0.756763 4:-0.878657 5:-0.431541 6:0.784921 7:0.864267 8:0.867846 9:0.72443 10:0.921571 11:0.886031 12:-0.588548 
1024 1:-0.632514 2:0.682088 3:-0.76189 4:-0.844627 5:-0.405221 6:0.905905 7:0.783885 8:0.872644 9:0.926872 10:0.889659 11:0.942625 12:-0.777888 
1024 1:-0.593125 2:0.73099 3:-0.568659 4:-0.747339 5:-0.182362 6:0.716682 7:0.463374 8:0.94208 9:-0.284754 10:0.318437 11:0.817408 12:-0.70495 
1024 1:-0.506909 2:0.759253 3:-0.753265 4:-0.868703 5:-0.426729 6:0.845522 7:0.919221 8:0.895675 9:0.814185 10:0.96578 11:0.91509 12:-0.626066 
-1024 1:-0.56093 2:0.788181 3:-0.601496 4:-0.767238 5:-0.199789 6:0.772749 7:0.509674 8:0.947837 9:0.446519 10:0.392978 11:0.969418 12:-0.687809 
-1024 1:-0.66466 2:0.852149 3:-0.223624 4:-0.630419 5:0.18573 6:0.103441 7:-0.0286708 8:0.696004 9:-0.193657 10:-0.47066 11:0.903802 12:-0.67989 
1024 1:-0.745297 2:-0.756567 3:-0.766815 4:-0.727527 5:-0.699345 6:-0.916845 7:-0.201739 8:-0.0892453 9:0.102425 10:0.601392 11:0.813151 12:-0.726925 
1024 1:-0.508438 2:0.691866 3:-0.48827 4:-0.825714 5:0.0254168 6:0.91956 7:0.771663 8:0.0629927 9:0.78716 10:0.683078 11:0.447146 12:-0.918918 
-1024 1:-0.558196 2:0.592304 3:-0.459407 4:-0.814286 5:-0.0589237 6:0.857078 7:0.691505 8:0.849339 9:0.229823 10:0.318347 11:0.906966 12:-0.872827 
-1024 1:-0.510448 2:0.701553 3:-0.195806 4:-0.722138 5:0.367625 6:0.794499 7:0.392838 8:0.988142 9:0.188834 10:0.03562 11:0.962115 12:-0.851785 
-1024 1:-0.462223 2:0.692207 3:-0.489788 4:-0.83633 5:0.0228748 6:0.925036 7:0.810585 8:0.0625129 9:0.833594 10:0.714153 11:0.456051 12:-0.920304 
-1024 1:-0.557507 2:0.716727 3:-0.264224 4:-0.728761 5:0.280274 6:0.838568 7:0.367288 8:0.99198 9:0.228094 10:0.282963 11:0.98012 12:-0.848513 
-1024 1:-0.543141 2:0.758385 3:-0.159096 4:-0.733791 5:0.285041 6:0.696821 7:0.335957 8:0.856262 9:0.14178 10:-0.118002 11:0.950163 12:-0.856122 
1024 1:-0.200922 2:0.883908 3:-0.29225 4:-0.81691 5:-0.0440572 6:0.895528 7:0.781884 8:0.887244 9:0.812353 10:0.650465 11:0.919933 12:-0.848634 
1024 1:-0.240645 2:0.916383 3:-0.364855 4:-0.812948 5:-0.0379733 6:0.880215 7:0.764736 8:0.746521 9:0.864051 10:0.610813 11:0.85916 12:-0.854966 
1024 1:-0.366983 2:0.916592 3:0.0551134 4:-0.69042 5:0.282328 6:0.627259 7:0.271874 8:0.965453 9:0.23339 10:-0.083111 11:0.982815 12:-0.871231 
1024 1:-0.128337 2:0.907258 3:-0.255939 4:-0.813749 5:-0.00257102 6:0.894667 7:0.792831 8:0.921036 9:0.785982 10:0.639627 11:0.943523 12:-0.850208 
1024 1:-0.375564 2:0.92 3:-0.0627218 4:-0.700673 5:0.175361 6:0.721489 7:0.335722 8:0.952841 9:0.477012 10:0.154321 11:0.989572 12:-0.860284 
1024 1:-0.35004 2:0.911841 3:0.0514614 4:-0.710202 5:0.261922 6:0.569761 7:0.279201 8:0.752485 9:0.252232 10:-0.106502 11:0.906653 12:-0.864503 
1024 1:-0.0826046 2:0.768842 3:0.0618224 4:-0.548058 5:0.374028 6:0.349138 7:0.187539 8:0.478237 9:0.0911031 10:0.271006 11:0.923448 12:-0.827376 
1024 1:-0.182117 2:0.904325 3:-0.594288 4:-0.876889 5:-0.539546 6:0.701981 7:0.870636 8:0.886284 9:0.435321 10:0.922067 11:0.879587 12:-0.707113 
-1024 1:-0.1591 2:0.856842 3:-0.646796 4:-0.864621 5:-0.531509 6:0.826021 7:0.85133 8:0.729111 9:0.802867 10:0.945807 11:0.874509 12:-0.838322 
-1024 1:-0.31016 2:0.916427 3:-0.256223 4:-0.716187 5:-0.119831 6:0.344054 7:0.234582 8:0.876756 9:-0.344022 10:0.0103069 11:0.811549 12:-0.701871 
1024 1:-0.123036 2:0.905177 3:-0.607204 4:-0.877119 5:-0.550789 6:0.724291 7:0.902736 8:0.913839 9:0.476832 10:0.935244 11:0.925166 12:-0.718542 
1024 1:-0.200824 2:0.939424 3:-0.372567 4:-0.753521 5:-0.286011 6:0.624398 7:0.447041 8:0.92556 9:0.345319 10:0.368278 11:0.979886 12:-0.757196 
-1024 1:-0.351918 2:0.898104 3:-0.159152 4:-0.729179 5:-0.126536 6:0.293106 7:0.293244 8:0.707108 9:0.167872 10:-0.0416399 11:0.905521 12:-0.750074 
1024 1:-0.175802 2:0.111287 3:-0.307058 4:-0.43869 5:-0.246187 6:-0.221174 7:-0.215562 8:0.039756 9:-0.319541 10:-0.274162 11:0.754682 12:-0.748694 
1024 1:-0.0847086 2:0.892701 3:-0.764622 4:-0.949997 5:-0.579651 6:0.213108 7:0.874505 8:0.560696 9:-0.29016 10:0.934056 11:0.582557 12:-0.660824 
1024 1:-0.093644 2:0.9273 3:-0.523261 4:-0.850507 5:-0.299409 6:-0.340793 7:0.236658 8:0.567962 9:-0.930583 10:0.38667 11:0.514285 12:-0.731518 
1024 1:-0.00485895 2:0.844776 3:-0.761956 4:-0.944065 5:-0.604019 6:0.0814928 7:0.781635 8:0.466722 9:-0.50251 10:0.807898 11:0.67563 12:-0.694654 
1024 1:0.190082 2:0.909616 3:-0.699618 4:-0.922981 5:-0.570171 6:0.277581 7:0.750167 8:0.724313 9:0.12875 10:0.786788 11:0.794403 12:-0.681212 
1024 1:0.0123818 2:0.664407 3:-0.677059 4:-0.939604 5:-0.569126 6:0.166525 7:0.824976 8:0.483446 9:0.132631 10:0.654951 11:0.58783 12:-0.751322 
-164.3508117808857 1:0.657083 2:0.0650658 3:-0.536721 4:-0.728235 5:-0.376964 6:-0.0629708 7:0.408682 8:0.116937 9:-0.666226 10:-0.0381281 11:-0.0620423 12:-0.775442 
1024 1:-0.347724 2:0.770083 3:-0.864995 4:-0.950912 5:-0.759263 6:0.147707 7:0.81724 8:0.681198 9:-0.389905 10:0.778413 11:0.74191 12:-0.587702 
-1024 1:0.136601 2:0.635846 3:-0.909431 4:-0.973082 5:-0.802712 6:0.747939 7:0.977663 8:0.821784 9:0.283323 10:0.945563 11:0.815806 12:-0.660926 
1024 1:-0.320653 2:0.849641 3:-0.71772 4:-0.895457 5:-0.554214 6:-0.194561 7:0.390825 8:0.600589 9:-0.914485 10:0.207885 11:0.57041 12:-0.670566 
-1024 1:-0.275215 2:0.792079 3:-0.867506 4:-0.95448 5:-0.754961 6:0.195728 7:0.84002 8:0.699842 9:-0.386969 10:0.808322 11:0.747183 12:-0.573872 
1024 1:-0.0728769 2:0.865791 3:-0.856167 4:-0.918585 5:-0.707495 6:0.246296 7:0.76409 8:0.776201 9:-0.0402718 10:0.929711 11:0.818775 12:-0.677638 
-889.2773350010929 1:-0.231277 2:0.688135 3:-0.675061 4:-0.867444 5:-0.374594 6:-0.491483 7:0.372222 8:0.357598 9:-0.593551 10:0.278698 11:0.541313 12:-0.704919 
-1024 1:-0.369678 2:0.24478 3:-0.826313 4:-0.875079 5:-0.702772 6:-0.564318 7:0.152311 8:0.38344 9:-0.707254 10:0.43666 11:0.648017 12:-0.576616 
-1024 1:-0.00353501 2:0.893136 3:-0.305229 4:-0.851304 5:-0.00744706 6:0.811275 7:0.778427 8:0.835767 9:0.608553 10:0.705534 11:0.959146 12:-0.783744 
-1024 1:0.0106764 2:0.904036 3:-0.308209 4:-0.837939 5:4.68455e-005 6:0.791517 7:0.792262 8:0.781136 9:0.359183 10:0.636995 11:0.888218 12:-0.839334 
-1024 1:-0.271684 2:0.914465 3:0.110896 4:-0.683302 5:0.368559 6:0.43195 7:0.0733987 8:0.916238 9:-0.159695 10:-0.24601 11:0.943562 12:-0.797771 
-1024 1:0.0286701 2:0.900486 3:-0.302338 4:-0.852387 5:0.00728817 6:0.826659 7:0.804364 8:0.869628 9:0.628704 10:0.718267 11:0.964106 12:-0.785138 
-1024 1:-0.146961 2:0.926584 3:-0.0455835 4:-0.743317 5:0.251452 6:0.615424 7:0.366333 8:0.940503 9:0.245828 10:0.236836 11:0.986447 12:-0.81512 
-1024 1:-0.148157 2:0.954408 3:0.137563 4:-0.733273 5:0.359344 6:0.3309 7:0.184128 8:0.705394 9:0.0227596 10:-0.107997 11:0.903451 12:-0.801219 
41.59266398786708 1:0.102503 2:-0.153394 3:0.25328 4:-0.288636 5:0.454774 6:-0.358008 7:-0.259949 8:-0.159298 9:-0.595714 10:-0.593925 11:0.788857 12:-0.770692 
1024 1:-0.332595 2:0.714782 3:-0.72882 4:-0.877954 5:-0.477575 6:0.645268 7:0.86788 8:0.754541 9:0.192512 10:0.88744 11:0.793817 12:-0.601619 
1024 1:-0.25971 2:0.781066 3:-0.73871 4:-0.889161 5:-0.444269 6:0.700306 7:0.839528 8:0.747275 9:0.492068 10:0.895707 11:0.885211 12:-0.714233 
320.7194542842734 1:-0.362881 2:0.768661 3:-0.554158 4:-0.800995 5:-0.199467 6:0.498249 7:0.418886 8:0.863116 9:-0.681492 10:0.383556 11:0.680942 12:-0.650845 
1024 1:-0.251318 2:0.747993 3:-0.72747 4:-0.885271 5:-0.476648 6:0.697733 7:0.894949 8:0.768661 9:0.349152 10:0.910358 11:0.82436 12:-0.595986 
1024 1:-0.258873 2:0.827517 3:-0.634769 4:-0.801707 5:-0.339124 6:0.697842 7:0.495794 8:0.926726 9:0.240306 10:0.72312 11:0.890796 12:-0.683195 
1024 1:-0.199945 2:0.819776 3:-0.443171 4:-0.807107 5:-0.145497 6:0.266177 7:0.442395 8:0.604702 9:0.172944 10:0.138374 11:0.835804 12:-0.713917 
1024 1:-0.267036 2:-0.408162 3:-0.778699 4:-0.641187 5:-0.599096 6:-0.50367 7:-0.02753 8:-0.235451 9:0.268719 10:0.503897 11:0.71582 12:-0.669804 
1024 1:-0.439248 2:0.75835 3:-0.857152 4:-0.92241 5:-0.50872 6:0.454789 7:0.873375 8:0.393036 9:0.557316 10:0.973513 11:0.831664 12:-0.910177 
1024 1:-0.223469 2:0.868385 3:-0.820387 4:-0.899108 5:-0.545324 6:0.859476 7:0.974024 8:0.882171 9:0.906848 10:0.996516 11:0.952819 12:-0.854286 
-1024 1:-0.490456 2:0.808377 3:-0.693046 4:-0.839703 5:-0.256258 6:0.591734 7:0.794889 8:0.899925 9:-0.271993 10:0.653084 11:0.823344 12:-0.638043 
1024 1:-0.383805 2:0.798508 3:-0.852872 4:-0.921915 5:-0.501165 6:0.488409 7:0.881395 8:0.398382 9:0.552223 10:0.976802 11:0.831742 12:-0.908571 
1024 1:-0.346088 2:0.831447 3:-0.731262 4:-0.825114 5:-0.405349 6:0.847512 7:0.794729 8:0.961341 9:0.579108 10:0.807062 11:0.943953 12:-0.77597 
1024 1:-0.6244 2:0.794913 3:-0.65312 4:-0.802312 5:-0.247126 6:0.609035 7:0.611658 8:0.792241 9:0.254539 10:0.311287 11:0.870213 12:-0.668651 
1024 1:-0.281473 2:-0.73177 3:-0.943266 4:-0.929882 5:-0.892905 6:-0.744488 7:-0.0929566 8:-0.0786209 9:0.0227504 10:0.722659 11:0.752417 12:-0.392391 
1024 1:-0.330373 2:0.797881 3:-0.784597 4:-0.921912 5:-0.573798 6:0.589958 7:0.912342 8:0.896155 9:0.279817 10:0.935579 11:0.894233 12:-0.84062 
1024 1:-0.223894 2:0.717134 3:-0.767445 4:-0.919473 5:-0.488234 6:0.802768 7:0.870894 8:0.801837 9:0.712184 10:0.960355 11:0.897631 12:-0.888474 
-1024 1:-0.391291 2:0.812372 3:-0.565471 4:-0.815674 5:-0.213085 6:0.488747 7:0.305944 8:0.850367 9:-0.647168 10:0.408316 11:0.686371 12:-0.856191 
1024 1:-0.203031 2:0.809005 3:-0.762678 4:-0.923049 5:-0.536013 6:0.720352 7:0.918755 8:0.935157 9:0.478902 10:0.963173 11:0.931494 12:-0.851945 
1024 1:-0.297742 2:0.862562 3:-0.63826 4:-0.833417 5:-0.327508 6:0.657616 7:0.419566 8:0.921311 9:0.0529583 10:0.804494 11:0.861152 12:-0.858039 
-1024 1:-0.152106 2:0.827682 3:-0.52257 4:-0.874686 5:-0.24565 6:0.314284 7:0.563779 8:0.713414 9:0.118281 10:0.259081 11:0.881696 12:-0.8415 
1024 1:-0.274809 2:0.869094 3:-0.368682 4:-0.782463 5:0.0655914 6:0.806191 7:0.646945 8:0.908904 9:0.0752709 10:0.693547 11:0.856387 12:-0.824919 
1024 1:-0.237555 2:0.887989 3:-0.465275 4:-0.832786 5:-0.0260354 6:0.812136 7:0.760879 8:0.801289 9:0.34581 10:0.770021 11:0.878962 12:-0.848169 
1024 1:-0.342123 2:0.828707 3:-0.183258 4:-0.69583 5:0.220535 6:0.61665 7:0.220908 8:0.90534 9:-0.453939 10:0.11523 11:0.748628 12:-0.852249 
1024 1:-0.203664 2:0.875783 3:-0.354364 4:-0.786889 5:0.0833576 6:0.863583 7:0.648864 8:0.948249 9:0.594912 10:0.625492 11:0.971566 12:-0.834348 
-1024 1:-0.297324 2:0.866415 3:-0.263235 4:-0.710819 5:0.212458 6:0.721206 7:0.311653 8:0.942628 9:0.35746 10:0.331651 11:0.977269 12:-0.867138 
1024 1:-0.0981375 2:0.873966 3:-0.13826 4:-0.788227 5:0.284902 6:0.470467 7:0.530247 8:0.772911 9:0.354178 10:0.302396 11:0.910012 12:-0.85907 
-1024 1:-0.342207 2:0.336903 3:-0.00400676 4:-0.180733 5:0.430152 6:0.037562 7:-0.431614 8:0.264926 9:-0.209305 10:-0.458742 11:0.76472 12:-0.850224 
-1024 1:-0.339914 2:0.815523 3:-0.570547 4:-0.840248 5:-0.25583 6:0.768876 7:0.719119 8:0.930564 9:0.103204 10:0.866319 11:0.91052 12:-0.69198 
-1024 1:-0.185754 2:0.698771 3:-0.682468 4:-0.865878 5:-0.387409 6:0.926662 7:0.844883 8:0.847419 9:0.994642 10:0.972388 11:0.951647 12:-0.905787 
1024 1:-0.433918 2:0.773283 3:-0.46463 4:-0.795444 5:-0.0882796 6:0.536844 7:0.473168 8:0.869148 9:-0.726191 10:0.49923 11:0.697541 12:-0.531096 
-1024 1:-0.290293 2:0.821797 3:-0.579509 4:-0.855456 5:-0.267764 6:0.83067 7:0.779697 8:0.957913 9:0.495133 10:0.897765 11:0.963325 12:-0.712686 
-1024 1:-0.408648 2:0.791297 3:-0.519268 4:-0.781659 5:-0.14964 6:0.704354 7:0.413074 8:0.911988 9:0.106032 10:0.523783 11:0.940711 12:-0.640879 
-1024 1:-0.293684 2:0.777321 3:-0.337909 4:-0.805513 5:0.0836691 6:0.0446708 7:0.342295 8:0.604976 9:-0.0395413 10:-0.00109672 11:0.852247 12:-0.639345 
1024 1:-0.340475 2:-0.222005 3:-0.483082 4:-0.212864 5:-0.16126 6:-0.28389 7:0.161551 8:0.265063 9:-0.171082 10:-0.0394534 11:0.700861 12:-0.455537 
1024 1:-0.409814 2:0.949955 3:-0.634523 4:-0.895707 5:-0.482282 6:0.627755 7:0.847957 8:0.871547 9:-0.0219507 10:0.877964 11:0.87615 12:-0.551687 
1024 1:-0.332915 2:0.677423 3:-0.782314 4:-0.934984 5:-0.674702 6:0.906068 7:0.969044 8:0.580643 9:0.926515 10:0.993943 11:0.700471 12:-0.599958 
-1024 1:-0.461054 2:0.874735 3:-0.500108 4:-0.839033 5:-0.300985 6:0.370134 7:0.544418 8:0.878881 9:-0.481522 10:0.479794 11:0.808776 12:-0.566733 
-1024 1:-0.385855 2:0.881677 3:-0.664781 4:-0.902135 5:-0.52502 6:0.674507 7:0.853935 8:0.78991 9:0.0738167 10:0.854426 11:0.85955 12:-0.497896 
1024 1:-0.377343 2:0.96074 3:-0.535249 4:-0.83177 5:-0.315651 6:0.530789 7:0.593335 8:0.919597 9:0.167535 10:0.565422 11:0.962935 12:-0.537953 
1024 1:-0.430313 2:0.751928 3:-0.514181 4:-0.859965 5:-0.439818 6:0.406053 7:0.642903 8:0.67969 9:0.173548 10:0.212175 11:0.872283 12:-0.638434 
1024 1:-0.488173 2:0.624512 3:-0.513969 4:-0.647114 5:-0.326423 6:0.0316174 7:0.126174 8:0.398177 9:-0.383455 10:-0.0421177 11:0.609663 12:-0.428881 
-1024 1:-0.300865 2:0.853858 3:-0.609744 4:-0.893921 5:-0.0861341 6:0.934802 7:0.884436 8:0.573377 9:0.880749 10:0.886163 11:0.77011 12:-0.929765 
-1024 1:-0.0950688 2:0.817934 3:-0.63566 4:-0.898054 5:-0.253901 6:0.935853 7:0.924636 8:0.897114 9:0.933604 10:0.942892 11:0.959459 12:-0.86225 
-1024 1:-0.431172 2:0.827639 3:-0.347791 4:-0.79021 5:0.184848 6:0.485343 7:0.365155 8:0.890054 9:0.132315 10:0.20766 11:0.947663 12:-0.71356 
519.6627621560353 1:-0.267464 2:0.850357 3:-0.609474 4:-0.894758 5:-0.0791831 6:0.927197 7:0.885443 8:0.572418 9:0.867789 10:0.87883 11:0.770266 12:-0.929456 
1024 1:-0.364274 2:0.876921 3:-0.410007 4:-0.819873 5:0.108169 6:0.610155 7:0.537603 8:0.913771 9:0.426759 10:0.505801 11:0.980667 12:-0.738957 
-1024 1:-0.393819 2:0.732087 3:-0.456161 4:-0.869677 5:-0.0995431 6:0.458045 7:0.664613 8:0.808417 9:0.35274 10:0.577866 11:0.937196 12:-0.736827 
1024 1:-0.423588 2:0.572873 3:-0.233594 4:-0.587235 5:0.405511 6:-0.0669248 7:-0.0984572 8:0.573103 9:-0.112498 10:-0.116748 11:0.949304 12:-0.689435 
1024 1:-0.315731 2:0.868158 3:-0.369635 4:-0.809891 5:-0.10682 6:0.880718 7:0.712069 8:0.916512 9:0.551451 10:0.600946 11:0.960474 12:-0.800893 
1024 1:-0.40696 2:0.785448 3:-0.503101 4:-0.832651 5:-0.247982 6:0.906431 7:0.78072 8:0.807252 9:0.872428 10:0.827972 11:0.906614 12:-0.875147 
1024 1:-0.449606 2:0.840017 3:-0.179181 4:-0.721843 5:0.339116 6:0.691707 7:0.334973 8:0.95997 9:0.0625429 10:-0.00058913 11:0.924385 12:-0.815222 
1024 1:-0.275218 2:0.866026 3:-0.385041 4:-0.821115 5:-0.142272 6:0.901976 7:0.768181 8:0.93406 9:0.673318 10:0.669403 11:0.974457 12:-0.800147 
1024 1:-0.417167 2:0.861982 3:-0.236958 4:-0.728587 5:0.0633072 6:0.777115 7:0.352496 8:0.966893 9:0.480653 10:0.201909 11:0.98508 12:-0.826472 
1024 1:-0.491551 2:0.850067 3:-0.134071 4:-0.714433 5:0.159216 6:0.590735 7:0.205232 8:0.762218 9:0.371178 10:-0.136126 11:0.927861 12:-0.821079 
1024 1:-0.405773 2:0.782518 3:-0.146824 4:-0.651617 5:0.255935 6:0.623704 7:0.1347 8:0.660703 9:0.15006 10:0.0816801 11:0.917082 12:-0.795727 
-1024 1:-0.0291599 2:0.945267 3:-0.333011 4:-0.850514 5:-0.206187 6:0.505335 7:0.906322 8:0.822058 9:0.0163 10:0.852715 11:0.843186 12:-0.79823 
-1024 1:-0.0760046 2:0.824629 3:-0.435038 4:-0.85673 5:-0.314204 6:0.92442 7:0.952087 8:0.86154 9:0.924476 10:0.95741 11:0.944461 12:-0.867785 
-1024 1:-0.240628 2:0.913699 3:-0.0868916 4:-0.763084 5:0.120248 6:0.236849 7:0.498736 8:0.807458 9:-0.526919 10:0.199548 11:0.753159 12:-0.794205 
-1024 1:0.0573021 2:0.92641 3:-0.34936 4:-0.853758 5:-0.215758 6:0.611603 7:0.93128 8:0.865241 9:0.232178 10:0.888196 11:0.877478 12:-0.797736 
1024 1:-0.0591945 2:0.945691 3:-0.184856 4:-0.776823 5:-0.105153 6:0.526706 7:0.715465 8:0.9039 9:0.381964 10:0.51016 11:0.98383 12:-0.797842 
-1024 1:-0.428689 2:0.805957 3:-0.17846 4:-0.782714 5:-0.069691 6:0.459922 7:0.622716 8:0.745562 9:0.358345 10:0.228586 11:0.916574 12:-0.838217 
-39.30004541979439 1:0.0216715 2:-0.165244 3:0.305001 4:0.0146729 5:0.372276 6:-0.0232037 7:-0.195875 8:0.048187 9:-0.511142 10:-0.554229 11:0.838381 12:-0.849565 
-1024 1:-0.669308 2:0.522144 3:-0.817111 4:-0.914129 5:-0.738067 6:0.854051 7:0.681941 8:0.928713 9:0.690588 10:0.829522 11:0.936845 12:-0.64963 
-1024 1:-0.134223 2:0.48445 3:-0.84948 4:-0.965665 5:-0.770062 6:0.936188 7:0.956341 8:0.883611 9:0.986 10:0.993578 11:0.9536 12:-0.777143 
-1024 1:-0.444751 2:0.725542 3:-0.618983 4:-0.86432 5:-0.466443 6:0.29005 7:0.340362 8:0.87751 9:-0.0569014 10:0.00147799 11:0.945086 12:-0.455641 
-1024 1:-0.618083 2:0.491273 3:-0.824383 4:-0.929814 5:-0.757176 6:0.791409 7:0.782956 8:0.88978 9:0.748224 10:0.892064 11:0.944773 12:-0.651794 
-1024 1:-0.344493 2:0.694883 3:-0.676448 4:-0.892655 5:-0.556466 6:0.537742 7:0.509194 8:0.914182 9:0.289969 10:0.481143 11:0.965708 12:-0.501678 
1024 1:0.0243858 2:0.643129 3:-0.672328 4:-0.934957 5:-0.594522 6:0.291542 7:0.782676 8:0.711495 9:0.0426709 10:0.589274 11:0.832992 12:-0.558602 
1024 1:-0.585657 2:0.679592 3:-0.609901 4:-0.776652 5:-0.345546 6:-0.30109 7:0.0762119 8:0.383851 9:-0.644269 10:-0.0968367 11:0.484875 12:-0.321551 
-1024 1:-0.324745 2:0.899678 3:-0.552373 4:-0.802052 5:-0.00223434 6:0.84161 7:0.712589 8:0.761258 9:0.703288 10:0.864847 11:0.843576 12:-0.895087 
-1024 1:-0.0809509 2:0.877106 3:-0.582615 4:-0.828424 5:-0.145888 6:0.898693 7:0.909681 8:0.843512 9:0.901654 10:0.990243 11:0.869159 12:-0.93855 
1024 1:-0.401765 2:0.818931 3:-0.313009 4:-0.712294 5:0.21582 6:0.580486 7:0.360544 8:0.886147 9:-0.199004 10:0.200834 11:0.793114 12:-0.93419 
-1024 1:-0.274189 2:0.907123 3:-0.537715 4:-0.809922 5:0.0132236 6:0.888838 7:0.754693 8:0.780382 9:0.763013 10:0.866992 11:0.87326 12:-0.898753 
-1024 1:-0.344602 2:0.870446 3:-0.421592 4:-0.724343 5:0.112847 6:0.699356 7:0.371891 8:0.899239 9:0.414995 10:0.446031 11:0.971996 12:-0.941709 
1024 1:-0.0268196 2:0.910844 3:-0.275904 4:-0.82638 5:0.244248 6:0.294351 7:0.662901 8:0.698129 9:0.188269 10:0.556944 11:0.891343 12:-0.929456 
1024 1:-0.188714 2:-0.195858 3:-0.226991 4:-0.318594 5:0.167112 6:-0.42073 7:-0.11401 8:0.290356 9:-0.311042 10:-0.111789 11:0.878962 12:-0.913837 
-1024 1:-0.362243 2:0.73569 3:-0.751396 4:-0.899981 5:-0.428894 6:0.846225 7:0.883113 8:0.942148 9:0.925268 10:0.925935 11:0.961997 12:-0.552606 
1024 1:-0.116188 2:0.87413 3:-0.701177 4:-0.886622 5:-0.277907 6:0.936672 7:0.901504 8:0.88601 9:0.97094 10:0.945846 11:0.943016 12:-0.763301 
-1024 1:-0.488121 2:0.719671 3:-0.560147 4:-0.723325 5:-0.126963 6:0.651548 7:0.169716 8:0.91617 9:0.422909 10:0.122292 11:0.959029 12:-0.562931 
1024 1:-0.324634 2:0.789241 3:-0.725348 4:-0.883175 5:-0.368724 6:0.883839 7:0.865001 8:0.949208 9:0.936591 10:0.915657 11:0.965239 12:-0.537607 
-1024 1:-0.399474 2:0.763289 3:-0.612196 4:-0.78227 5:-0.16664 6:0.710964 7:0.411495 8:0.918363 9:0.622039 10:0.459615 11:0.975042 12:-0.555619 
-1024 1:-0.218628 2:0.896045 3:-0.256384 4:-0.746818 5:0.17445 6:0.026731 7:0.0425823 8:0.62931 9:-0.180581 10:-0.207975 11:0.880719 12:-0.656545 
-1024 1:-0.563059 2:0.00685179 3:-0.448612 4:-0.455838 5:0.00134373 6:-0.561454 7:-0.477254 8:0.244705 9:-0.65646 10:-0.363011 11:0.82975 12:-0.551062 
-1024 1:-0.481445 2:0.688158 3:-0.283932 4:-0.840726 5:-0.155289 6:0.988333 7:0.964932 8:0.998972 9:0.967776 10:0.938898 11:0.998594 12:-0.917368 
1024 1:-0.707444 2:0.63285 3:-0.524693 4:-0.876548 5:-0.336914 6:0.864142 7:0.972877 8:0.756735 9:0.891127 10:0.986511 11:0.874197 12:-0.917794 
1024 1:-0.467745 2:0.833062 3:0.0789481 4:-0.759809 5:0.246994 6:0.68039 7:0.611798 8:0.984235 9:0.210557 10:0.271424 11:0.988556 12:-0.912913 
-1024 1:-0.420536 2:0.712012 3:-0.243779 4:-0.83494 5:-0.102194 6:0.959365 7:0.943688 8:0.997807 9:0.898093 10:0.895443 11:0.996836 12:-0.914925 
-1024 1:-0.628695 2:0.767341 3:-0.121366 4:-0.801248 5:0.0583276 6:0.870247 7:0.826429 8:0.998903 9:0.728385 10:0.757014 11:0.999297 12:-0.913783 
-1024 1:-0.7137 2:0.710273 3:-0.281142 4:-0.820628 5:-0.101757 6:0.972936 7:0.869184 8:0.817876 9:0.940849 10:0.79061 11:0.948757 12:-0.909981 
-1024 1:-0.854249 2:0.785955 3:-0.20564 4:-0.784795 5:0.199002 6:0.928847 7:0.762598 8:0.845843 9:0.835571 10:0.719064 11:0.943758 12:-0.918569 
1024 1:-0.391951 2:0.809452 3:-0.406384 4:-0.772925 5:-0.0356998 6:0.796825 7:0.311376 8:0.958393 9:0.660435 10:0.366381 11:0.984455 12:-0.708713 
1024 1:-0.260856 2:0.761289 3:-0.64505 4:-0.871544 5:-0.344838 6:0.946753 7:0.814321 8:0.838714 9:0.985825 10:0.918378 11:0.927471 12:-0.809903 
1024 1:-0.369505 2:0.845394 3:-0.106976 4:-0.699677 5:0.291717 6:0.311354 7:-0.0817439 8:0.943588 9:-0.288634 10:-0.129415 11:0.945593 12:-0.744441 
1024 1:-0.367042 2:0.816329 3:-0.410728 4:-0.787343 5:-0.0419459 6:0.791643 7:0.376665 8:0.943862 9:0.681976 10:0.304973 11:0.970746 12:-0.721734 
1024 1:-0.421055 2:0.756947 3:-0.335651 4:-0.747207 5:0.0308131 6:0.637172 7:0.152342 8:0.963945 9:0.416099 10:0.192035 11:0.987541 12:-0.73531 
1024 1:0.0385332 2:0.676183 3:-0.319781 4:-0.859661 5:-0.0958168 6:0.439516 7:0.672793 8:0.701419 9:0.31492 10:0.536466 11:0.872439 12:-0.762092 
1024 1:-0.602206 2:0.607418 3:-0.151597 4:-0.195236 5:0.31809 6:0.195225 7:-0.69573 8:0.351018 9:-0.132147 10:-0.359908 11:0.736169 12:-0.621645 
-1024 1:-0.46525 2:0.845878 3:-0.774256 4:-0.929396 5:-0.595546 6:0.695454 7:0.969261 8:0.905545 9:0.386278 10:0.973929 11:0.890288 12:-0.580687 
1024 1:-0.37097 2:0.729911 3:-0.808687 4:-0.925313 5:-0.653414 6:0.92825 7:0.95038 8:0.869765 9:0.960092 10:0.991024 11:0.931416 12:-0.788224 
-1024 1:-0.441675 2:0.825743 3:-0.58377 4:-0.832438 5:-0.287148 6:0.286569 7:0.473245 8:0.832271 9:-0.729097 10:0.417556 11:0.736013 12:-0.611511 
-1024 1:-0.433724 2:0.799576 3:-0.794108 4:-0.934521 5:-0.630082 6:0.61849 7:0.960684 8:0.898691 9:0.380127 10:0.956593 11:0.907122 12:-0.59904 
-1024 1:-0.366993 2:0.884677 3:-0.675028 4:-0.868877 5:-0.439758 6:0.686577 7:0.746013 8:0.9185 9:0.278891 10:0.848549 11:0.927002 12:-0.613485 
-1024 1:-0.700212 2:0.728336 3:-0.630154 4:-0.863785 5:-0.409638 6:0.547826 7:0.686227 8:0.677085 9:0.443156 10:0.478017 11:0.842248 12:-0.626152 
-1024 1:-0.413072 2:0.80323 3:-0.685804 4:-0.63479 5:-0.376828 6:0.35028 7:0.0166918 8:0.0891082 9:0.0439937 10:-0.167606 11:0.178784 12:-0.343239 
-537.7406109986748 1:-0.81627 2:0.69842 3:-0.766981 4:-0.945112 5:-0.624248 6:0.995688 7:0.997095 8:0.98869 9:0.996361 10:0.995673 11:0.989962 12:-0.733169 
1024 1:-0.762624 2:0.647702 3:-0.809616 4:-0.95662 5:-0.667605 6:0.908762 7:0.989113 8:0.876756 9:0.945804 10:0.999322 11:0.945086 12:-0.880714 
-1024 1:-0.689601 2:0.60821 3:-0.688086 4:-0.920283 5:-0.515718 6:0.8508 7:0.869945 8:0.946604 9:0.388755 10:0.467102 11:0.958404 12:-0.722212 
1024 1:-0.740053 2:0.704119 3:-0.750205 4:-0.942361 5:-0.600801 6:0.955758 7:0.984999 8:0.956337 9:0.946687 10:0.970116 11:0.993321 12:-0.746531 
1024 1:-0.812872 2:0.774064 3:-0.719328 4:-0.93672 5:-0.550961 6:0.941639 7:0.97734 8:0.980945 9:0.830483 10:0.956593 11:0.993712 12:-0.715866 
-1024 1:-0.899012 2:0.698326 3:-0.747545 4:-0.941628 5:-0.58654 6:0.95936 7:0.980479 8:0.889643 9:0.907148 10:0.955339 11:0.942937 12:-0.717454 
1024 1:-0.976639 2:0.799957 3:-0.691584 4:-0.868984 5:-0.499136 6:0.71629 7:0.634898 8:0.814861 9:0.747501 10:0.661028 11:0.928408 12:-0.736719 
-1024 1:-0.543903 2:0.784824 3:-0.64744 4:-0.839302 5:-0.378412 6:0.740924 7:0.770454 8:0.725821 9:0.212476 10:0.794732 11:0.735466 12:-0.734191 
-1024 1:-0.49369 2:0.7314 3:-0.705222 4:-0.869628 5:-0.464748 6:0.867793 7:0.857348 8:0.677702 9:0.789434 10:0.912953 11:0.701799 12:-0.809269 
-1024 1:-0.530893 2:0.789082 3:-0.554589 4:-0.813834 5:-0.285574 6:0.555041 7:0.592245 8:0.887655 9:-0.2155 10:0.452483 11:0.800848 12:-0.825974 
-1024 1:-0.503398 2:0.79111 3:-0.642482 4:-0.84938 5:-0.372242 6:0.716968 7:0.799095 8:0.686545 9:0.161629 10:0.771036 11:0.680161 12:-0.72891 
1024 1:-0.455424 2:0.867792 3:-0.575646 4:-0.78951 5:-0.296822 6:0.663874 7:0.55608 8:0.924943 9:0.185645 10:0.629813 11:0.892944 12:-0.827959 
-1024 1:-0.586725 2:0.721165 3:-0.479663 4:-0.78761 5:-0.203821 6:0.429501 7:0.424761 8:0.656453 9:0.329146 10:-0.03935 11:0.854785 12:-0.824543 
597.8876610024058 1:-0.540579 2:0.183453 3:-0.567809 4:-0.44713 5:-0.322224 6:-0.297551 7:-0.234325 8:0.150113 9:-0.457783 10:0.0891241 11:0.590564 12:-0.749736 
1024 1:-0.243215 2:0.885301 3:-0.519711 4:-0.837672 5:-0.225361 6:0.669808 7:0.904869 8:0.537117 9:0.534494 10:0.913776 11:0.71043 12:-0.748273 
1024 1:-0.142172 2:0.896816 3:-0.569899 4:-0.831852 5:-0.30728 6:0.848798 7:0.979513 8:0.509151 9:0.810069 10:0.982406 11:0.615131 12:-0.793567 
-1024 1:-0.407806 2:0.885326 3:-0.377608 4:-0.754152 5:-0.0308704 6:0.373267 7:0.66401 8:0.828295 9:-0.201726 10:0.494349 11:0.841467 12:-0.768183 
1024 1:-0.255231 2:0.893567 3:-0.497121 4:-0.819885 5:-0.208579 6:0.663106 7:0.906436 8:0.59682 9:0.436533 10:0.868954 11:0.690784 12:-0.74719 
1024 1:-0.193227 2:0.973668 3:-0.453828 4:-0.776979 5:-0.118968 6:0.536625 7:0.831 8:0.779834 9:0.251826 10:0.857538 11:0.902552 12:-0.738291 
-1024 1:-0.417401 2:0.926569 3:-0.167609 4:-0.732567 5:0.214991 6:0.14825 7:0.529249 8:0.562204 9:0.0110687 10:0.17982 11:0.832913 12:-0.76382 
-1024 1:-0.0685064 2:0.894467 3:-0.500267 4:-0.875287 5:-0.182533 6:0.408066 7:0.758815 8:0.763383 9:-0.0756488 10:0.728724 11:0.857051 12:-0.609354 
-1024 1:0.0447838 2:0.707976 3:-0.643387 4:-0.910897 5:-0.461628 6:0.884813 7:0.93098 8:0.828158 9:0.819951 10:0.962539 11:0.887867 12:-0.763594 
-1024 1:-0.240973 2:0.871084 3:-0.262525 4:-0.775975 5:0.0567332 6:0.0305987 7:0.237184 8:0.818014 9:-0.647827 10:0.0193586 11:0.809167 12:-0.690984 
-1024 1:-0.0660603 2:0.850319 3:-0.516764 4:-0.876589 5:-0.209034 6:0.473274 7:0.7579 8:0.757077 9:-0.0435051 10:0.677453 11:0.833538 12:-0.611206 
-1024 1:-0.0204189 2:0.965613 3:-0.418717 4:-0.834373 5:-0.133129 6:0.327982 7:0.650019 8:0.860374 9:0.0159981 10:0.544098 11:0.921612 12:-0.678204 
-1024 1:-0.335245 2:0.799267 3:-0.296687 4:-0.808167 5:-0.0960798 6:0.0605683 7:0.340525 8:0.637124 9:-0.0856598 10:-0.0766088 11:0.842209 12:-0.696914 
1024 1:0.386052 2:-0.198797 3:-0.273646 4:-0.347973 5:-0.0865047 6:-0.429721 7:0.0809177 8:0.0570978 9:-0.690832 10:-0.0785013 11:0.774523 12:-0.647021 
1024 1:-0.0569502 2:0.676139 3:-0.839122 4:-0.95442 5:-0.641271 6:0.174986 7:0.881732 8:0.718898 9:-0.161016 10:0.93291 11:0.814869 12:-0.353926 
1024 1:0.223776 2:0.732233 3:-0.849518 4:-0.956831 5:-0.683818 6:0.843085 7:0.978112 8:0.850641 9:0.839362 10:0.997451 11:0.915324 12:-0.802087 
-1024 1:-0.21822 2:0.847409 3:-0.640029 4:-0.879849 5:-0.348825 6:0.0713648 7:0.544095 8:0.740558 9:-0.86279 10:0.496772 11:0.622825 12:-0.47374 
1024 1:0.0885648 2:0.798527 3:-0.832395 4:-0.952215 5:-0.640591 6:0.393787 7:0.94062 8:0.816506 9:0.0694427 10:0.972693 11:0.860683 12:-0.412821 
1024 1:0.115733 2:0.794963 3:-0.744237 4:-0.901114 5:-0.524338 6:0.521519 7:0.757717 8:0.894372 9:0.0155695 10:0.892422 11:0.843498 12:-0.580635 
899.006342657256 1:-0.14716 2:0.867597 3:-0.584063 4:-0.847696 5:-0.271787 6:0.0814336 7:0.458359 8:0.709987 9:-0.217247 10:-0.0280704 11:0.824126 12:-0.540701 
1024 1:0.453241 2:0.392978 3:-0.834937 4:-0.790611 5:-0.719113 6:0.675447 7:0.586382 8:0.663582 9:0.921033 10:0.955038 11:0.956647 12:-0.686786 
1024 1:-0.32584 2:0.885205 3:-0.624647 4:-0.870077 5:-0.453342 6:0.69017 7:0.774494 8:0.877648 9:0.0241769 10:0.681837 11:0.934189 12:-0.729219 
1024 1:-0.27961 2:0.903688 3:-0.602935 4:-0.86527 5:-0.36702 6:0.73328 7:0.71809 8:0.814381 9:-0.0509488 10:0.529608 11:0.882672 12:-0.834042 
1024 1:-0.422035 2:0.810344 3:-0.359761 4:-0.761911 5:-0.138162 6:0.571293 7:0.24303 8:0.951196 9:-0.500113 10:-0.0989153 11:0.91466 12:-0.773533 
1024 1:-0.265933 2:0.897927 3:-0.629524 4:-0.880072 5:-0.460645 6:0.727757 7:0.818512 8:0.906916 9:0.163961 10:0.755749 11:0.949655 12:-0.729856 
1024 1:-0.352757 2:0.892066 3:-0.501536 4:-0.771987 5:-0.304399 6:0.69979 7:0.308137 8:0.950785 9:0.0296087 10:0.526734 11:0.964497 12:-0.771097 
1024 1:-0.226072 2:0.949279 3:-0.228633 4:-0.750595 5:0.00923651 6:0.125742 7:0.113764 8:0.695318 9:-0.0161064 10:0.0528782 11:0.904661 12:-0.786879 
1024 1:-0.197435 2:-0.116777 3:-0.628861 4:-0.668775 5:-0.493943 6:-0.586606 7:-0.0592641 8:-0.134279 9:-0.0767781 10:-0.022581 11:0.774679 12:-0.675302 
-1024 1:-0.23155 2:0.890033 3:-0.613351 4:-0.87541 5:-0.409424 6:0.657845 7:0.935503 8:0.911851 9:0.391415 10:0.938616 11:0.911731 12:-0.658418 
-1024 1:-0.317353 2:0.801544 3:-0.673539 4:-0.85789 5:-0.490594 6:0.909146 7:0.890457 8:0.859415 9:0.926778 10:0.958543 11:0.948952 12:-0.838802 
-1024 1:-0.385105 2:0.845038 3:-0.333141 4:-0.742795 5:-0.073826 6:0.398194 7:0.420335 8:0.823977 9:-0.526684 10:0.124587 11:0.747652 12:-0.642787 
-1024 1:-0.164755 2:0.883134 3:-0.619724 4:-0.882954 5:-0.415601 6:0.725604 7:0.955435 8:0.928988 9:0.554698 10:0.959376 11:0.936806 12:-0.683692 
1024 1:-0.296758 2:0.889817 3:-0.405953 4:-0.738549 5:-0.152197 6:0.592797 7:0.474695 8:0.885941 9:0.219026 10:0.292887 11:0.975121 12:-0.727978 
-1024 1:-0.463704 2:0.750997 3:-0.349576 4:-0.759524 5:-0.163636 6:0.397361 7:0.415324 8:0.695044 9:0.244297 10:0.0406385 11:0.897241 12:-0.679854 
-1024 1:-0.34939 2:-0.513348 3:-0.459623 4:-0.688082 5:-0.440056 6:-0.623993 7:-0.0236991 8:-0.0186442 9:-0.536615 10:-0.20042 11:0.814088 12:-0.716568 
-1024 1:-0.443031 2:0.727768 3:-0.362505 4:-0.744545 5:-0.102022 6:0.963886 7:0.641765 8:0.983823 9:0.897683 10:0.530191 11:0.987111 12:-0.823839 
1024 1:-0.524059 2:0.668026 3:-0.514012 4:-0.77849 5:-0.204438 6:0.931615 7:0.68661 8:0.789636 9:0.961835 10:0.709544 11:0.902787 12:-0.891677 
1024 1:-0.489373 2:0.752891 3:-0.117004 4:-0.604011 5:0.198097 6:0.68464 7:0.0710715 8:0.971143 9:0.374677 10:-0.182021 11:0.987853 12:-0.840841 
1024 1:-0.373603 2:0.745259 3:-0.338842 4:-0.753762 5:-0.0953689 6:0.938743 7:0.664665 8:0.977243 9:0.824341 10:0.487429 11:0.977972 12:-0.824422 
-1024 1:-0.497243 2:0.793803 3:-0.165798 4:-0.611883 5:0.197504 6:0.750384 7:0.153034 8:0.977654 9:0.551082 10:0.0901461 11:0.992931 12:-0.840571 
1024 1:-0.332096 2:0.800028 3:-0.0333915 4:-0.703309 5:0.1453 6:0.525919 7:0.347453 8:0.800535 9:0.38322 10:0.118055 11:0.918683 12:-0.851566 
-1024 1:-0.642443 2:0.619162 3:-0.159811 4:-0.190561 5:0.39049 6:0.500974 7:-0.449645 8:0.579478 9:0.385686 10:-0.129392 11:0.927588 12:-0.756744 
1024 1:-0.186263 2:0.900996 3:-0.647421 4:-0.878917 5:-0.369731 6:0.607829 7:0.926932 8:0.864281 9:0.293495 10:0.936277 11:0.880954 12:-0.540078 
1024 1:-0.0340471 2:0.876648 3:-0.658715 4:-0.875645 5:-0.355366 6:0.866895 7:0.925433 8:0.834601 9:0.861223 10:0.98265 11:0.928213 12:-0.817625 
-1024 1:-0.310467 2:0.930828 3:-0.407513 4:-0.73731 5:-0.0509901 6:0.232863 7:0.342858 8:0.796079 9:-0.678371 10:0.39897 11:0.720937 12:-0.622352 
1024 1:-0.111424 2:0.918228 3:-0.635721 4:-0.880755 5:-0.352206 6:0.608863 7:0.93361 8:0.855165 9:0.237434 10:0.93009 11:0.857871 12:-0.540309 
1024 1:-0.0840959 2:0.95606 3:-0.519005 4:-0.753588 5:-0.18333 6:0.529163 7:0.502878 8:0.882103 9:0.281949 10:0.606631 11:0.929307 12:-0.622811 
-1024 1:-0.117106 2:0.904236 3:-0.297502 4:-0.774354 5:0.0261927 6:0.191169 7:0.448493 8:0.66934 9:0.106426 10:0.00682955 11:0.878923 12:-0.650663 
-399.1895922785856 1:0.0952928 2:-0.62181 3:-0.590645 4:-0.486767 5:-0.464436 6:-0.388074 7:0.175159 8:0.0186442 9:-0.119463 10:-0.328554 11:0.717968 12:-0.786506 
1024 1:-0.582499 2:0.680805 3:-0.711903 4:-0.834785 5:-0.472443 6:0.862107 7:0.858209 8:0.912674 9:0.871013 10:0.888575 11:0.934657 12:-0.901229 
-1024 1:-0.597845 2:0.659728 3:-0.703434 4:-0.83139 5:-0.396575 6:0.84232 7:0.782739 8:0.815683 9:0.826712 10:0.858717 11:0.895249 12:-0.923019 
-1024 1:-0.577839 2:0.643301 3:-0.546588 4:-0.748787 5:-0.140805 6:0.826334 7:0.466015 8:0.963123 9:0.172836 10:0.232711 11:0.896459 12:-0.902812 
-1024 1:-0.517368 2:0.698774 3:-0.698633 4:-0.843734 5:-0.457276 6:0.884887 7:0.885614 8:0.921242 9:0.888244 10:0.909501 11:0.942547 12:-0.899442 
-1024 1:-0.576214 2:0.721487 3:-0.554945 4:-0.700596 5:-0.209927 6:0.854865 7:0.299231 8:0.962849 9:0.457516 10:0.421614 11:0.96688 12:-0.903547 
-1024 1:-0.530962 2:0.740023 3:-0.391201 4:-0.735391 5:-0.0562839 6:0.516366 7:0.334505 8:0.743505 9:0.267334 10:0.0222824 11:0.923057 12:-0.893724 
58.19537215484002 1:-0.738697 2:-0.670265 3:-0.712058 4:-0.671357 5:-0.543801 6:-1 7:-0.424444 8:-0.298924 9:-0.113577 10:-0.503353 11:0.79866 12:-0.776004 
1024 1:-0.306975 2:0.857145 3:-0.677821 4:-0.868366 5:-0.334606 6:0.661964 7:0.800501 8:0.911988 9:0.159016 10:0.878361 11:0.907513 12:-0.571137 
1024 1:0.0150001 2:0.842186 3:-0.728396 4:-0.922971 5:-0.443604 6:0.919422 7:0.948759 8:0.903215 9:0.942764 10:0.974986 11:0.964341 12:-0.801374 
1024 1:-0.360875 2:0.834407 3:-0.483559 4:-0.775108 5:-0.054426 6:0.300094 7:0.18829 8:0.856262 9:-0.464722 10:0.129782 11:0.81565 12:-0.61526 
1024 1:-0.187203 2:0.890579 3:-0.664454 4:-0.871795 5:-0.31532 6:0.696853 7:0.80623 8:0.924327 9:0.184048 10:0.87838 11:0.913957 12:-0.584049 
1024 1:-0.160995 2:0.953501 3:-0.551859 4:-0.794214 5:-0.168354 6:0.519126 7:0.42597 8:0.917678 9:0.199624 10:0.568169 11:0.957428 12:-0.646568 
1024 1:-0.127993 2:0.848476 3:-0.387211 4:-0.822986 5:-0.0398907 6:0.165191 7:0.442741 8:0.728426 9:0.0648912 10:0.101959 11:0.893569 12:-0.662457 
-1024 1:0.0594185 2:0.0792573 3:-0.509624 4:-0.498007 5:-0.0817076 6:-0.160731 7:0.0193621 8:0.358078 9:-0.122549 10:-0.0329052 11:0.878767 12:-0.629068 
-1024 1:-0.122621 2:0.859849 3:-0.542509 4:-0.873697 5:-0.297376 6:0.804768 7:0.695195 8:0.777983 9:0.472541 10:0.766792 11:0.887164 12:-0.629383 
-1024 1:0.0604274 2:0.870099 3:-0.580426 4:-0.860005 5:-0.254309 6:0.924454 7:0.814787 8:0.748235 9:0.574817 10:0.773464 11:0.831976 12:-0.70321 
1024 1:-0.324327 2:0.809972 3:-0.322132 4:-0.733737 5:-0.037621 6:0.357137 7:0.197419 8:0.907327 9:-0.189399 10:-0.042577 11:0.958521 12:-0.687585 
-1024 1:-0.0414346 2:0.901393 3:-0.520127 4:-0.853997 5:-0.235163 6:0.819765 7:0.741793 8:0.908013 9:0.604057 10:0.753592 11:0.983244 12:-0.640368 
-1024 1:-0.17784 2:0.878123 3:-0.420916 4:-0.801808 5:-0.119596 6:0.506329 7:0.460595 8:0.891699 9:0.244933 10:0.435232 11:0.976683 12:-0.676006 
-1024 1:-0.227106 2:0.964622 3:-0.0425726 4:-0.720368 5:0.276348 6:-0.17464 7:-0.136427 8:0.394064 9:-0.327316 10:-0.31713 11:0.676529 12:-0.689815 
-1024 1:0.0989471 2:-0.0589798 3:-0.15474 4:-0.286928 5:0.134723 6:-0.340241 7:-0.275016 8:0.0335184 9:-0.639724 10:-0.432166 11:0.750425 12:-0.643624 
1024 1:-0.332839 2:0.665008 3:-0.846112 4:-0.952881 5:-0.595614 6:0.432814 7:0.803403 8:0.854822 9:-0.217535 10:0.808424 11:0.861699 12:-0.397648 
-1024 1:0.212683 2:0.612507 3:-0.894045 4:-0.982493 5:-0.697455 6:0.863272 7:0.981311 8:0.912263 9:0.742776 10:0.986846 11:0.928916 12:-0.640374 
1024 1:-0.364185 2:0.695572 3:-0.689921 4:-0.890028 5:-0.293417 6:0.0341333 7:0.247922 8:0.838166 9:-0.67574 10:0.245608 11:0.785225 12:-0.542435 
1024 1:-0.339567 2:0.650854 3:-0.841219 4:-0.951907 5:-0.586453 6:0.389031 7:0.78086 8:0.832339 9:-0.300047 10:0.756196 11:0.851817 12:-0.388932 
1024 1:-0.0431916 2:0.839545 3:-0.767367 4:-0.932097 5:-0.444889 6:0.288145 7:0.64519 8:0.893002 9:-0.088628 10:0.837049 11:0.893022 12:-0.551974 
-1024 1:-0.102092 2:0.618933 3:-0.692365 4:-0.927766 5:-0.387095 6:-0.0280703 7:0.56554 8:0.69573 9:-0.255357 10:0.432588 11:0.833695 12:-0.595066 
-1024 1:0.118804 2:-0.0124031 3:-0.717144 4:-0.587323 5:-0.366334 6:-0.231541 7:-0.0674149 8:0.476935 9:-0.624477 10:-0.200073 11:0.788974 12:-0.450957 
-1024 1:-0.107969 2:0.929421 3:-0.676944 4:-0.878304 5:-0.492185 6:0.464004 7:0.893982 8:0.715196 9:0.0479206 10:0.912694 11:0.846349 12:-0.792707 
-1024 1:0.256813 2:0.902081 3:-0.732566 4:-0.893144 5:-0.556274 6:0.787223 7:0.977743 8:0.803619 9:0.772629 10:0.996688 11:0.940282 12:-0.914336 
-1024 1:-0.142654 2:0.980806 3:-0.390503 4:-0.772299 5:-0.120496 6:0.0784169 7:0.392861 8:0.769141 9:-0.734473 10:0.161264 11:0.690745 12:-0.805215 
-1024 1:0.175091 2:0.926075 3:-0.658282 4:-0.870311 5:-0.479516 6:0.502684 7:0.915902 8:0.788334 9:0.012002 10:0.910709 11:0.856231 12:-0.823863 
-1024 1:0.155788 2:0.807656 3:-0.564006 4:-0.791098 5:-0.438803 6:0.612015 7:0.665514 8:0.910206 9:0.135422 10:0.656809 11:0.928174 12:-0.863406 
-1024 1:0.0370493 2:0.903381 3:-0.29363 4:-0.75495 5:-0.202074 6:0.191431 7:0.477571 8:0.779217 9:-0.141047 10:0.0326204 11:0.891031 12:-0.857901 
1024 1:0.403172 2:-0.668385 3:-0.64071 4:-0.624597 5:-0.637228 6:-0.352604 7:0.100098 8:-0.106107 9:-0.325878 10:-0.23405 11:0.760853 12:-1 
-1024 1:-0.434898 2:0.909115 3:-0.872875 4:-0.944325 5:-0.775959 6:0.558583 7:0.951192 8:0.840085 9:0.437803 10:0.951287 11:0.909622 12:-0.37096 
1024 1:-0.0409498 2:0.922537 3:-0.874133 4:-0.952761 5:-0.725282 6:0.863548 7:0.969129 8:0.902255 9:0.84664 10:0.992457 11:0.956842 12:-0.498079 
-1024 1:-0.426947 2:0.801276 3:-0.752148 4:-0.892929 5:-0.539868 6:0.326252 7:0.631787 8:0.829872 9:-0.505821 10:0.568796 11:0.777179 12:-0.450141 
-1024 1:-0.375662 2:0.829199 3:-0.873924 4:-0.946699 5:-0.817109 6:0.552867 7:0.931583 8:0.814449 9:0.415806 10:0.906525 11:0.883883 12:-0.336118 
-1024 1:-0.225723 2:0.955816 3:-0.805881 4:-0.894375 5:-0.652177 6:0.611322 7:0.708955 8:0.908081 9:0.160189 10:0.936381 11:0.903841 12:-0.478563 
-1024 1:-0.33352 2:0.904655 3:-0.677048 4:-0.897745 5:-0.352873 6:0.0967268 7:0.681993 8:0.661389 9:-0.0394883 10:0.501272 11:0.829047 12:-0.531915 
-1024 1:0.0850827 2:-0.0268489 3:-0.832457 4:-0.734098 5:-0.625524 6:-0.167226 7:0.314969 8:0.344712 9:-0.0879943 10:0.508989 11:0.7241 12:-0.287135 
59.17620054017136 1:-0.279884 2:0.818502 3:-0.630321 4:-0.824567 5:-0.406761 6:0.672354 7:0.942341 8:0.932072 9:0.54613 10:0.951475 11:0.939266 12:-0.743956 
1024 1:-0.36905 2:0.799853 3:-0.617893 4:-0.767411 5:-0.324789 6:0.75973 7:0.879333 8:0.835424 9:0.658635 10:0.92681 11:0.922589 12:-0.77977 
-1024 1:-0.399909 2:0.834956 3:-0.429585 4:-0.65454 5:0.048344 6:0.709696 7:0.642248 8:0.924395 9:-0.072865 10:0.627201 11:0.854043 12:-0.747341 
-1024 1:-0.251702 2:0.832059 3:-0.613231 4:-0.811573 5:-0.416143 6:0.741869 7:0.96748 8:0.951265 9:0.62957 10:0.977602 11:0.955006 12:-0.749677 
1024 1:-0.329731 2:0.824828 3:-0.492582 4:-0.673661 5:-0.224749 6:0.816092 7:0.679285 8:0.957228 9:0.481783 10:0.723563 11:0.948054 12:-0.75536 
1024 1:-0.357334 2:0.896253 3:-0.20599 4:-0.600926 5:0.0236929 6:0.570571 7:0.469932 8:0.778258 9:0.395164 10:0.0604462 11:0.941492 12:-0.749208 
1024 1:-0.358813 2:-0.812948 3:-0.887574 4:-0.853397 5:-0.813394 6:-0.882677 7:-0.460829 8:-0.339914 9:-0.237773 10:0.549041 11:0.668522 12:-0.698493 
-1024 1:-0.48486 2:0.824177 3:-0.889636 4:-0.931379 5:-0.751719 6:0.465065 7:0.905018 8:0.733087 9:0.219611 10:0.938604 11:0.837483 12:-0.902021 
-1024 1:-0.228186 2:0.820625 3:-0.875302 4:-0.939295 5:-0.694637 6:0.779658 7:0.93841 8:0.89965 9:0.571964 10:0.974685 11:0.927276 12:-0.398229 
-1024 1:-0.488596 2:0.810001 3:-0.77285 4:-0.887269 5:-0.557318 6:0.332409 7:0.656225 8:0.861814 9:-0.586639 10:0.675315 11:0.791864 12:-0.207848 
-1024 1:-0.360031 2:0.864599 3:-0.877292 4:-0.937317 5:-0.696675 6:0.532106 7:0.939299 8:0.743711 9:0.165498 10:0.953315 11:0.833343 12:-0.894695 
-1024 1:-0.276667 2:0.837164 3:-0.81899 4:-0.867063 5:-0.609233 6:0.588567 7:0.572027 8:0.920282 9:0.0383314 10:0.920372 11:0.887945 12:-0.22506 
-1024 1:-0.388326 2:0.811925 3:-0.677166 4:-0.86678 5:-0.25483 6:0.0639994 7:0.504359 8:0.704092 9:-0.122726 10:0.210356 11:0.85502 12:-0.344785 
-1024 1:-0.07551 2:-0.166616 3:-0.876478 4:-0.815077 5:-0.709973 6:-0.198927 7:0.326971 8:0.460141 9:0.111551 10:0.752076 11:0.813463 12:-0.326775 
-1024 1:-0.192878 2:0.855672 3:-0.821023 4:-0.937755 5:-0.659841 6:0.490925 7:0.913549 8:0.831654 9:0.236699 10:0.95154 11:0.866971 12:-0.383581 
-1024 1:0.420753 2:0.868093 3:-0.830372 4:-0.96285 5:-0.717232 6:0.883913 7:0.994908 8:0.912331 9:0.854173 10:0.99856 11:0.949148 12:-0.651038 
-1024 1:-0.261627 2:0.873453 3:-0.610588 4:-0.822593 5:-0.39086 6:0.0732641 7:0.31989 8:0.751114 9:-0.670707 10:0.404999 11:0.668327 12:-0.420283 
-1024 1:-0.150524 2:0.826546 3:-0.82699 4:-0.94184 5:-0.674205 6:0.424111 7:0.915682 8:0.80924 9:0.17471 10:0.929539 11:0.862245 12:-0.374741 
-1024 1:0.0763959 2:0.987181 3:-0.689165 4:-0.864031 5:-0.514234 6:0.467021 7:0.591491 8:0.890534 9:0.272399 10:0.624989 11:0.95528 12:-0.499643 
-1024 1:0.0694071 2:0.78206 3:-0.597846 4:-0.903381 5:-0.414231 6:0.306623 7:0.700816 8:0.742272 9:0.0532118 10:0.432009 11:0.886422 12:-0.543383 
-318.51348870641 1:0.473562 2:-0.0725864 3:-0.639242 4:-0.688071 5:-0.492141 6:0.0825066 7:0.315676 8:0.574748 9:-0.306137 10:0.102556 11:0.785654 12:-0.606778 
1024 1:-0.599757 2:0.614379 3:-0.926464 4:-0.977979 5:-0.867405 6:0.528016 7:0.903643 8:0.773665 9:0.73584 10:0.953958 11:0.91095 12:-0.473198 
-1024 1:-0.247848 2:0.678801 3:-0.902818 4:-0.976195 5:-0.847095 6:0.837661 7:0.974144 8:0.91802 9:0.619884 10:0.964517 11:0.929072 12:-0.731173 
1024 1:-0.4833 2:0.569726 3:-0.821339 4:-0.944721 5:-0.683183 6:0.588683 7:0.784151 8:0.8978 9:-0.312493 10:0.632284 11:0.810065 12:-0.539094 
1024 1:-0.560485 2:0.572374 3:-0.925067 4:-0.978904 5:-0.887413 6:0.478003 7:0.910078 8:0.736857 9:0.614854 10:0.939004 11:0.883063 12:-0.483696 
1024 1:-0.39952 2:0.734784 3:-0.852309 4:-0.94948 5:-0.78527 6:0.727831 7:0.85143 8:0.925355 9:0.398038 10:0.896352 11:0.928486 12:-0.617643 
1024 1:-0.70174 2:0.785177 3:-0.762489 4:-0.921798 5:-0.595468 6:0.210357 7:0.557507 8:0.705874 9:-0.135463 10:0.501419 11:0.8194 12:-0.625464 
-1024 1:-0.0449241 2:0.74965 3:-0.921807 4:-0.941484 5:-0.889513 6:0.457638 7:0.663356 8:0.554116 9:0.888884 10:0.937451 11:0.921886 12:-0.477566 
-1024 1:-0.172554 2:0.871166 3:-0.736537 4:-0.941867 5:-0.586559 6:0.148918 7:0.669065 8:0.737268 9:-0.519425 10:0.575165 11:0.791943 12:-0.717681 
-1024 1:0.264983 2:0.637841 3:-0.901377 4:-0.98653 5:-0.825362 6:0.878447 7:0.98682 8:0.807526 9:0.877315 10:0.98276 11:0.895171 12:-0.812184 
-1024 1:-0.163355 2:0.882657 3:-0.539972 4:-0.876965 5:-0.39033 6:-0.314203 7:0.0670461 8:0.718418 9:-0.792757 10:0.102416 11:0.732068 12:-0.770362 
-1024 1:-0.305619 2:0.763892 3:-0.740977 4:-0.93495 5:-0.598124 6:0.147384 7:0.566727 8:0.651107 9:-0.585547 10:0.332735 11:0.789404 12:-0.687966 
-1024 1:0.200853 2:0.910274 3:-0.706003 4:-0.93452 5:-0.561281 6:0.0779902 7:0.64081 8:0.82809 9:-0.232821 10:0.840802 11:0.843029 12:-0.779721 
-1024 1:0.126541 2:0.671695 3:-0.665516 4:-0.934352 5:-0.542215 6:-0.0741916 7:0.604567 8:0.674755 9:-0.211755 10:0.602931 11:0.807956 12:-0.786013 
-1024 1:0.871361 2:0.16342 3:-0.707779 4:-0.899244 5:-0.573429 6:-0.187317 7:0.523545 8:0.2652 9:-0.441548 10:-0.0103092 11:0.488898 12:-0.741506 
1024 1:-0.209225 2:0.737917 3:-0.602796 4:-0.891459 5:-0.383517 6:0.359587 7:0.506864 8:0.744396 9:-0.390857 10:0.307442 11:0.885211 12:-0.822367 
-1024 1:0.222418 2:0.513998 3:-0.784292 4:-0.96155 5:-0.640072 6:0.846306 7:0.961304 8:0.784769 9:0.738124 10:0.932453 11:0.87533 12:-0.841354 
1024 1:-0.121991 2:0.909026 3:-0.233349 4:-0.802739 5:-0.0478764 6:-0.190901 7:-0.15282 8:0.811091 9:-0.841904 10:-0.230844 11:0.799637 12:-0.831104 
1024 1:-0.206558 2:0.737402 3:-0.538004 4:-0.882367 5:-0.326367 6:0.251158 7:0.392852 8:0.667763 9:-0.612872 10:0.0166553 11:0.861699 12:-0.814837 
1024 1:0.0692545 2:0.877422 3:-0.497647 4:-0.868017 5:-0.26081 6:0.165568 7:0.435791 8:0.895264 9:-0.212071 10:0.619197 11:0.918449 12:-0.827476 
1024 1:0.198078 2:0.522731 3:-0.526252 4:-0.915579 5:-0.394654 6:0.239254 7:0.721215 8:0.675783 9:0.0152883 10:0.604741 11:0.867049 12:-0.83094 
1024 1:0.490429 2:0.284833 3:-0.381513 4:-0.638591 5:-0.0798247 6:-0.273141 7:0.203074 8:0.150387 9:-0.318137 10:-0.0582849 11:0.6197 12:-0.802545 
-1024 1:-0.412905 2:0.790054 3:-0.883311 4:-0.958465 5:-0.849285 6:0.236649 7:0.899323 8:0.783878 9:0.0377783 10:0.88145 11:0.857559 12:-0.482235 
-1024 1:0.0849818 2:0.84296 3:-0.8988 4:-0.966104 5:-0.821752 6:0.82479 7:0.97949 8:0.889437 9:0.749425 10:0.989915 11:0.933642 12:-0.62934 
-1024 1:-0.38682 2:0.778552 3:-0.740768 4:-0.887125 5:-0.640522 6:0.126827 7:0.402507 8:0.766057 9:-0.648412 10:0.368838 11:0.723553 12:-0.555292 
-1024 1:-0.4385 2:0.671148 3:-0.896046 4:-0.961669 5:-0.861088 6:0.234057 7:0.862897 8:0.727329 9:0.103564 10:0.808621 11:0.836819 12:-0.412458 
-1024 1:-0.154021 2:0.941913 3:-0.810992 4:-0.899618 5:-0.710295 6:0.40261 7:0.648332 8:0.860717 9:0.009898 10:0.919061 11:0.86123 12:-0.561741 
-1024 1:-0.171414 2:0.854614 3:-0.567899 4:-0.865118 5:-0.313286 6:-0.352019 7:0.350649 8:0.550072 9:-0.435346 10:-0.0715122 11:0.760697 12:-0.583778 
-1024 1:-0.00614105 2:0.334139 3:-0.825537 4:-0.761428 5:-0.693079 6:-0.322799 7:0.240254 8:0.227569 9:-0.362661 10:0.448069 11:0.657703 12:-0.261803 
1024 1:-0.467839 2:0.8187 3:-0.459772 4:-0.839103 5:0.283723 6:0.923601 7:0.621198 8:0.288574 9:0.844964 10:0.41118 11:0.768274 12:-0.887524 
-1024 1:-0.176823 2:0.764749 3:-0.535695 4:-0.897301 5:-0.0604849 6:0.962729 7:0.918621 8:0.889095 9:0.984596 10:0.90401 11:0.948991 12:-0.870531 
1024 1:-0.44008 2:0.838135 3:-0.114819 4:-0.721507 5:0.474548 6:0.561316 7:0.0728183 8:0.967098 9:0.261363 10:0.171793 11:0.97723 12:-0.837738 
1024 1:-0.392758 2:0.835685 3:-0.425958 4:-0.832066 5:0.339014 6:0.899179 7:0.57454 8:0.287683 9:0.781209 10:0.314976 11:0.764798 12:-0.885013 
1024 1:-0.404565 2:0.850487 3:-0.20534 4:-0.784945 5:0.365476 6:0.675408 7:0.37232 8:0.982864 9:0.612821 10:0.361645 11:0.997305 12:-0.834396 
1024 1:-0.226623 2:0.82452 3:-0.307277 4:-0.856922 5:0.134367 6:0.69055 7:0.685318 8:0.844266 9:0.486611 10:0.484569 11:0.93497 12:-0.837801 
1024 1:-0.23407 2:0.846075 3:-0.752132 4:-0.89683 5:-0.426823 6:0.643761 7:0.90398 8:0.611145 9:0.574683 10:0.952991 11:0.743238 12:-0.911076 
1024 1:-0.10319 2:0.800461 3:-0.736607 4:-0.897497 5:-0.455912 6:0.879105 7:0.924356 8:0.772226 9:0.867719 10:0.984758 11:0.794364 12:-0.928696 
1024 1:-0.321775 2:0.857683 3:-0.502009 4:-0.792805 5:-0.1729 6:0.375144 7:0.437938 8:0.736171 9:-0.832831 10:0.516732 11:0.493351 12:-0.975772 
1024 1:-0.126149 2:0.867785 3:-0.73986 4:-0.89919 5:-0.405583 6:0.757833 7:0.922366 8:0.662485 9:0.690874 10:0.965881 11:0.791864 12:-0.915027 
1024 1:-0.221685 2:0.853514 3:-0.602586 4:-0.804328 5:-0.254547 6:0.572874 7:0.51462 8:0.842827 9:0.0587704 10:0.734005 11:0.794559 12:-0.988378 
472.3299632686797 1:-0.224812 2:0.854053 3:-0.42596 4:-0.816327 5:-0.0474441 6:0.0646506 7:0.423634 8:0.53369 9:0.0659191 10:0.11915 11:0.868338 12:-0.955577 
-1024 1:-0.214772 2:-0.635771 3:-0.669609 4:-0.581222 5:-0.439456 6:-0.393954 7:0.155307 8:0.146686 9:0.0600978 10:-0.792367 11:0.577284 12:-0.898303 
1024 1:-0.171254 2:0.955905 3:-0.512549 4:-0.828853 5:0.120967 6:0.754814 7:0.678251 8:0.949825 9:0.326286 10:0.653936 11:0.974886 12:-0.625167 
1024 1:-0.0807147 2:0.914257 3:-0.585419 4:-0.872006 5:0.0169153 6:0.869285 7:0.824974 8:0.93125 9:0.662445 10:0.773613 11:0.981643 12:-0.745654 
1024 1:-0.39513 2:0.894462 3:-0.324146 4:-0.712528 5:0.402048 6:0.434614 7:0.142033 8:0.929125 9:-0.263531 10:-0.243456 11:0.968637 12:-0.647326 
1024 1:-0.115228 2:0.956479 3:-0.512607 4:-0.842865 5:0.114341 6:0.788851 7:0.741799 8:0.963191 9:0.419638 10:0.698666 11:0.982581 12:-0.612916 
1024 1:-0.201882 2:0.967 3:-0.415778 4:-0.767421 5:0.28144 6:0.598064 7:0.392735 8:0.945575 9:0.117082 10:0.437402 11:0.986603 12:-0.647801 
1024 1:-0.0719122 2:0.905508 3:-0.292793 4:-0.819523 5:0.411073 6:0.310197 7:0.511955 8:0.761053 9:0.0809931 10:0.245373 11:0.924424 12:-0.647906 
1024 1:0.0899773 2:-0.0393914 3:-0.367933 4:-0.412745 5:0.183597 6:-0.287104 7:0.0515565 8:0.384948 9:-0.234397 10:-0.0751135 11:0.794872 12:-0.645904 
-1024 1:-0.359433 2:0.737366 3:-0.870357 4:-0.969287 5:-0.775029 6:0.405947 7:0.851722 8:0.8601 9:-0.188733 10:0.934945 11:0.789638 12:-0.710823 
-1024 1:0.645601 2:0.422795 3:-0.930081 4:-0.994861 5:-0.843248 6:0.783831 7:0.992661 8:0.897388 9:0.484583 10:0.988668 11:0.917394 12:-0.743265 
-1024 1:-0.177827 2:0.810745 3:-0.716495 4:-0.926788 5:-0.468456 6:-0.366893 7:0.45122 8:0.654192 9:-0.861184 10:0.557491 11:0.568028 12:-0.664137 
610.4147707588028 1:-0.222364 2:0.832079 3:-0.839824 4:-0.95305 5:-0.699976 6:0.198481 7:0.700136 8:0.802865 9:-0.477936 10:0.845898 11:0.721015 12:-0.693102 
1024 1:0.256053 2:0.706588 3:-0.828367 4:-0.971841 5:-0.679278 6:0.184793 7:0.866002 8:0.834601 9:-0.0837747 10:0.950623 11:0.830375 12:-0.726053 
-1024 1:0.353032 2:0.468627 3:-0.852789 4:-0.983015 5:-0.751507 6:0.339042 7:0.954474 8:0.807732 9:0.107802 10:0.96247 11:0.848536 12:-0.728756 
1024 1:1 2:0.293054 3:-0.902214 4:-0.99244 5:-0.831057 6:0.647648 7:0.987432 8:0.860443 9:0.383803 10:0.987643 11:0.8028 12:-0.716817 
1024 1:-0.3813 2:0.865288 3:-0.797843 4:-0.95378 5:-0.823302 6:0.225054 7:0.798691 8:0.804236 9:-0.280732 10:0.772541 11:0.837678 12:-0.789823 
-1024 1:0.215724 2:0.674861 3:-0.897728 4:-0.985549 5:-0.896726 6:0.719916 7:0.967517 8:0.806567 9:0.493819 10:0.937681 11:0.8981 12:-0.806414 
-1024 1:-0.171838 2:0.875857 3:-0.551304 4:-0.875385 5:-0.558934 6:-0.210333 7:-0.0545526 8:0.717801 9:-0.810677 10:-0.00137923 11:0.731013 12:-0.80848 
-1024 1:-0.27794 2:0.850938 3:-0.767096 4:-0.93933 5:-0.823629 6:0.129277 7:0.615368 8:0.749674 9:-0.504943 10:0.470364 11:0.809206 12:-0.788138 
1024 1:0.0220874 2:0.899501 3:-0.768434 4:-0.942348 5:-0.706528 6:0.236139 7:0.696085 8:0.831654 9:-0.0711688 10:0.899919 11:0.856074 12:-0.803698 
1024 1:-0.0823462 2:0.696035 3:-0.70307 4:-0.939381 5:-0.621795 6:-0.0274142 7:0.666466 8:0.66132 9:-0.125169 10:0.738536 11:0.800301 12:-0.805464 
-598.3292284786891 1:0.326465 2:0.863226 3:-0.596394 4:-0.739982 5:-0.43422 6:-0.140756 7:0.175159 8:-0.383577 9:-0.637392 10:-0.029522 11:-0.0728221 12:-0.525114 
1024 1:-0.322104 2:0.790334 3:-0.748477 4:-0.906656 5:-0.595223 6:0.657011 7:0.702526 8:0.905819 9:-0.244816 10:0.903872 11:0.828656 12:-0.532806 
1024 1:-0.0592634 2:0.86709 3:-0.784176 4:-0.93736 5:-0.577748 6:0.850906 7:0.870696 8:0.854822 9:0.639706 10:0.960176 11:0.918644 12:-0.733301 
-1024 1:-0.355476 2:0.828734 3:-0.516347 4:-0.809236 5:-0.222664 6:0.384791 7:0.129013 8:0.887724 9:-0.862405 10:0.396143 11:0.664655 12:-0.559256 
1024 1:-0.216955 2:0.787377 3:-0.748757 4:-0.915949 5:-0.606089 6:0.731916 7:0.765551 8:0.934403 9:0.00284841 10:0.946126 11:0.873299 12:-0.560974 
1024 1:-0.21347 2:0.857134 3:-0.613096 4:-0.840299 5:-0.411278 6:0.574739 7:0.28648 8:0.937761 9:-0.0391772 10:0.649025 11:0.938094 12:-0.595108 
1024 1:0.0788001 2:0.815976 3:-0.503881 4:-0.888696 5:-0.319736 6:0.178797 7:0.522545 8:0.716499 9:0.0063974 10:0.322778 11:0.883571 12:-0.644094 
1024 1:0.0490804 2:0.461249 3:-0.538991 4:-0.597821 5:-0.1731 6:0.120912 7:-0.0465676 8:0.356364 9:-0.239891 10:-0.446695 11:0.454684 12:-0.487741 
1024 1:-0.0795556 2:0.920709 3:-0.676917 4:-0.905455 5:-0.371658 6:0.403907 7:0.887553 8:0.811776 9:0.0264008 10:0.931734 11:0.835218 12:-0.581896 
1024 1:-0.0990825 2:0.731154 3:-0.712522 4:-0.902172 5:-0.475917 6:0.642012 7:0.931188 8:0.728426 9:0.40161 10:0.952764 11:0.800496 12:-0.614927 
1024 1:-0.290677 2:0.888432 3:-0.492228 4:-0.801204 5:-0.155636 6:0.101263 7:0.504708 8:0.738639 9:-0.711875 10:0.455152 11:0.657898 12:-0.643205 
1024 1:-0.0645247 2:0.890558 3:-0.692255 4:-0.902952 5:-0.42315 6:0.466597 7:0.93399 8:0.835081 9:0.0955509 10:0.936656 11:0.8492 12:-0.600266 
1024 1:-0.0290097 2:0.956376 3:-0.561943 4:-0.80466 5:-0.228652 6:0.402134 7:0.618828 8:0.855645 9:0.278084 10:0.479448 11:0.937626 12:-0.614385 
1024 1:-0.336454 2:0.819518 3:-0.411173 4:-0.805651 5:-0.147915 6:0.10903 7:0.499164 8:0.675509 9:0.00468974 10:-0.138384 11:0.864511 12:-0.68788 
1024 1:0.173619 2:-0.274279 3:-0.602185 4:-0.567407 5:-0.325691 6:-0.296897 7:0.0895287 8:0.165878 9:-0.351064 10:-0.220476 11:0.812526 12:-0.662323 
-1024 1:-0.387925 2:0.780205 3:-0.729255 4:-0.889372 5:-0.394446 6:0.788392 7:0.67958 8:0.935431 9:0.419592 10:0.835161 11:0.937118 12:-0.73161 
-1024 1:-0.129262 2:0.816654 3:-0.741876 4:-0.906942 5:-0.435808 6:0.883022 7:0.779694 8:0.89732 9:0.498108 10:0.87937 11:0.924424 12:-0.826236 
468.494766450059 1:-0.451137 2:0.759204 3:-0.491272 4:-0.754769 5:0.094643 6:0.359663 7:-0.0564738 8:0.910412 9:-0.384485 10:-0.00597743 11:0.858965 12:-0.750901 
-1024 1:-0.345315 2:0.794419 3:-0.719749 4:-0.895114 5:-0.374001 6:0.788261 7:0.70873 8:0.94537 9:0.436201 10:0.846955 11:0.945515 12:-0.738174 
-1024 1:-0.314306 2:0.837477 3:-0.570217 4:-0.818896 5:-0.0571244 6:0.512854 7:0.25199 8:0.929193 9:0.178413 10:0.398791 11:0.969692 12:-0.734252 
-1024 1:-0.0885107 2:0.815066 3:-0.317739 4:-0.820913 5:0.0838627 6:-0.135759 7:0.121351 8:0.651655 9:-0.238096 10:-0.0332658 11:0.895639 12:-0.784647 
-1024 1:-0.124589 2:0.802932 3:-0.507266 4:-0.741896 5:0.0988664 6:0.201418 7:0.123796 8:0.461855 9:-0.171248 10:0.0885866 11:0.563263 12:-0.644386 
1024 1:-0.478775 2:0.661309 3:-0.771543 4:-0.900641 5:-0.62119 6:0.680817 7:0.474906 8:0.923778 9:-0.0364924 10:0.553214 11:0.922745 12:-0.484095 
-1024 1:-0.081982 2:0.650274 3:-0.83202 4:-0.950316 5:-0.70936 6:0.82313 7:0.816494 8:0.888066 9:0.495806 10:0.776882 11:0.941297 12:-0.699995 
1024 1:-0.383003 2:0.70011 3:-0.566866 4:-0.838966 5:-0.226909 6:0.147658 7:-0.00168248 8:0.887107 9:-0.626383 10:-0.0126611 11:0.865839 12:-0.565791 
1024 1:-0.454151 2:0.692015 3:-0.75037 4:-0.900197 5:-0.582709 6:0.630285 7:0.473383 8:0.920488 9:-0.185336 10:0.507919 11:0.915519 12:-0.484268 
1024 1:-0.227544 2:0.767036 3:-0.677168 4:-0.891439 5:-0.443891 6:0.373486 7:0.391552 8:0.919597 9:-0.101681 10:0.661495 11:0.937079 12:-0.573129 
1024 1:0.15534 2:0.625603 3:-0.559322 4:-0.912442 5:-0.347263 6:-0.114583 7:0.531799 8:0.656522 9:-0.176555 10:0.455248 11:0.865643 12:-0.658115 
1024 1:-0.00376633 2:0.88364 3:-0.529692 4:-0.729999 5:-0.182767 6:-0.0640216 7:-0.0695191 8:0.383165 9:-0.500991 10:-0.680859 11:0.247876 12:-0.322936 
-1024 1:-0.223006 2:0.818648 3:-0.672709 4:-0.876173 5:-0.468867 6:0.553279 7:0.906376 8:0.807046 9:0.35949 10:0.950074 11:0.833226 12:-0.775776 
-1024 1:-0.179626 2:0.882541 3:-0.61369 4:-0.804042 5:-0.358032 6:0.790237 7:0.856871 8:0.801837 9:0.679097 10:0.899037 11:0.884508 12:-0.827297 
-1024 1:-0.355269 2:0.873386 3:-0.375434 4:-0.655308 5:-0.160961 6:0.409452 7:0.362442 8:0.806978 9:-0.167743 10:0.33395 11:0.77382 12:-0.821792 
-1024 1:-0.151427 2:0.849818 3:-0.643506 4:-0.858578 5:-0.448261 6:0.604923 7:0.946998 8:0.826719 9:0.339427 10:0.954459 11:0.845021 12:-0.775401 
-1024 1:-0.195066 2:0.9225 3:-0.452507 4:-0.659401 5:-0.243805 6:0.636521 7:0.482411 8:0.893276 9:0.489855 10:0.429138 11:0.943797 12:-0.827203 
-1024 1:-0.230925 2:0.922641 3:-0.188512 4:-0.680081 5:-0.0146073 6:0.303456 7:0.419449 8:0.685037 9:0.270094 10:-0.0945009 11:0.91052 12:-0.832084 
-1024 1:-0.169025 2:-0.674445 3:-0.776253 4:-0.487818 5:-0.664576 6:-0.595491 7:-0.484232 8:-0.338817 9:0.161995 10:0.491582 11:0.695588 12:-0.937303 
1024 1:-0.419333 2:0.708912 3:-0.890666 4:-0.960491 5:-0.753537 6:0.383131 7:0.806462 8:0.850709 9:-0.165102 10:0.841015 11:0.837014 12:-0.229209 
1024 1:0.146013 2:0.678593 3:-0.950221 4:-0.993821 5:-0.917132 6:0.90592 7:0.997224 8:0.918158 9:0.85183 10:0.993144 11:0.950358 12:-0.656907 
1024 1:-0.360801 2:0.725509 3:-0.760143 4:-0.903555 5:-0.41776 6:-0.252364 7:0.336157 8:0.713963 9:-0.813318 10:0.387116 11:0.676216 12:-0.281024 
1024 1:-0.3821 2:0.724575 3:-0.876531 4:-0.957494 5:-0.719277 6:0.289633 7:0.758489 8:0.834464 9:-0.30399 10:0.743918 11:0.817486 12:-0.266782 
-1024 1:-0.0455122 2:0.764009 3:-0.853639 4:-0.960653 5:-0.64999 6:0.203273 7:0.791556 8:0.837823 9:-0.152579 10:0.915891 11:0.837757 12:-0.377259 
-1024 1:-0.0310375 2:0.528021 3:-0.725643 4:-0.937601 5:-0.436427 6:-0.470647 7:0.534046 8:0.507506 9:-0.686599 10:0.492177 11:0.60646 12:-0.450271 
-1024 1:0.00748222 2:0.702091 3:-0.780376 4:-0.869937 5:-0.500952 6:0.046876 7:0.457012 8:0.534032 9:-0.868837 10:-0.126753 11:0.281895 12:0.164063 
-1024 1:-0.302452 2:0.795459 3:-0.681171 4:-0.888323 5:-0.520448 6:0.537594 7:0.756108 8:0.69573 9:-0.0872038 10:0.849961 11:0.751675 12:-0.717073 
-1024 1:0.0801856 2:0.606584 3:-0.735175 4:-0.940044 5:-0.580247 6:0.719889 7:0.94313 8:0.798821 9:0.426626 10:0.923381 11:0.844123 12:-0.774291 
-959.0133183905866 1:-0.293908 2:0.848428 3:-0.431787 4:-0.786113 5:-0.304198 6:0.0479219 7:0.0681497 8:0.745699 9:-0.762987 10:0.178575 11:0.65286 12:-0.787254 
-1024 1:-0.244556 2:0.793822 3:-0.652249 4:-0.883958 5:-0.482966 6:0.426916 7:0.700765 8:0.575296 9:-0.340367 10:0.731706 11:0.669381 12:-0.692331 
1024 1:-0.0959646 2:0.914773 3:-0.546267 4:-0.834497 5:-0.393217 6:0.362137 7:0.481608 8:0.868805 9:0.162581 10:0.531084 11:0.887359 12:-0.80082 
1024 1:-0.0353489 2:0.65975 3:-0.454997 4:-0.883101 5:-0.330633 6:0.185146 7:0.687302 8:0.625471 9:0.193167 10:0.412271 11:0.835921 12:-0.752013 
1024 1:0.108106 2:-0.0573753 3:-0.445458 4:-0.289431 5:-0.218516 6:-0.161229 7:-0.140661 8:0.097882 9:-0.512981 10:-0.410059 11:0.575058 12:-0.675832 
-1024 1:-0.000709955 2:0.916764 3:-0.390014 4:-0.831033 5:0.0621051 6:0.839809 7:0.78715 8:0.942354 9:0.577078 10:0.842389 11:0.966997 12:-0.853024 
-1024 1:0.054044 2:0.900458 3:-0.417726 4:-0.839856 5:0.0846783 6:0.854542 7:0.804306 8:0.848036 9:0.558411 10:0.780547 11:0.915402 12:-0.88498 
845.441585244933 1:-0.276431 2:0.88482 3:-0.0353391 4:-0.628326 5:0.576375 6:0.432084 7:0.0112199 8:0.870725 9:-0.259173 10:-0.16533 11:0.881149 12:-0.83454 
-1024 1:0.0510639 2:0.922865 3:-0.392073 4:-0.840663 5:0.0603808 6:0.862606 7:0.826858 8:0.952636 9:0.68965 10:0.856966 11:0.980432 12:-0.850019 
-1024 1:-0.143272 2:0.931652 3:-0.152193 4:-0.698775 5:0.477242 6:0.596236 7:0.26296 8:0.921859 9:0.276015 10:0.22181 11:0.985666 12:-0.851423 
1024 1:-0.00171644 2:0.919647 3:0.0629639 4:-0.74744 5:0.430726 6:0.259636 7:0.315115 8:0.721434 9:0.113153 10:0.0313709 11:0.907474 12:-0.849223 
1024 1:0.110597 2:0.210254 3:0.340735 4:-0.260149 5:0.735392 6:-0.0371599 7:-0.324887 8:0.412365 9:-0.22809 10:-0.381105 11:0.889937 12:-0.871325 
1024 1:-0.372375 2:0.717573 3:-0.510356 4:-0.814045 5:-0.169631 6:0.750916 7:0.231758 8:0.99294 9:0.518575 10:0.49903 11:0.992735 12:-0.811818 
-1024 1:-0.242892 2:0.738594 3:-0.708226 4:-0.890115 5:-0.438381 6:0.964887 7:0.711857 8:0.864967 9:0.998571 10:0.678105 11:0.944851 12:-0.864548 
1024 1:-0.350611 2:0.850339 3:-0.0130085 4:-0.611722 5:0.463585 6:0.0263289 7:-0.622364 8:0.955035 9:-0.46984 10:-0.408738 11:0.966489 12:-0.823439 
-1024 1:-0.254739 2:0.793878 3:-0.415212 4:-0.800828 5:-0.0936039 6:0.561935 7:0.150798 8:0.988073 9:0.330997 10:0.458032 11:0.99047 12:-0.8125 
550.1349649931918 1:-0.317126 2:0.771989 3:-0.334676 4:-0.758814 5:-0.041767 6:0.41439 7:-0.0905608 8:0.981356 9:0.165323 10:0.20119 11:0.986291 12:-0.818223 
-1024 1:0.192974 2:0.665017 3:-0.290982 4:-0.863507 5:-0.120942 6:0.280597 7:0.545173 8:0.758997 9:0.137005 10:0.481535 11:0.910637 12:-0.817513 
-1024 1:-0.0115894 2:0.61143 3:-0.66739 4:-0.926268 5:-0.308964 6:0.889707 7:0.932075 8:0.819522 9:0.811417 10:0.906796 11:0.944265 12:-0.72138 
1024 1:-0.311001 2:0.784091 3:-0.178251 4:-0.755603 5:0.0242747 6:0.97209 7:0.693226 8:0.995133 9:0.935563 10:0.652032 11:0.999102 12:-0.911939 
1024 1:-0.389773 2:0.790201 3:-0.358671 4:-0.782325 5:-0.128868 6:0.962561 7:0.730029 8:0.826033 9:0.997096 10:0.697529 11:0.912356 12:-0.896461 
1024 1:-0.196749 2:0.993812 3:0.659433 4:-0.583449 5:0.762102 6:0.342404 7:0.0787906 8:0.961752 9:-0.0216304 10:-0.00265396 11:0.985861 12:-0.90205 
1024 1:-0.189551 2:0.828411 3:-0.0698303 4:-0.761917 5:0.113234 6:0.909736 7:0.714393 8:0.99623 9:0.815876 10:0.650077 11:0.999063 12:-0.912783 
1024 1:-0.382646 2:0.891704 3:0.223576 4:-0.607793 5:0.373678 6:0.68409 7:0.14378 8:0.992597 9:0.495216 10:0.203266 11:0.998789 12:-0.909495 
1024 1:-0.122992 2:0.826895 3:0.0890494 4:-0.755645 5:0.14194 6:0.75362 7:0.636359 8:0.820824 9:0.568767 10:0.453377 11:0.92833 12:-0.89179 
1024 1:-0.322255 2:0.937671 3:0.187969 4:-0.643679 5:0.533216 6:0.716191 7:0.28194 8:0.925492 9:0.375824 10:0.262802 11:0.976253 12:-0.897795 
-1024 1:-0.357324 2:0.738585 3:-0.503252 4:-0.854279 5:-0.107161 6:0.736336 7:0.507135 8:0.974707 9:0.474636 10:0.448386 11:0.988634 12:-0.868402 
-1024 1:-0.297447 2:0.878375 3:-0.106956 4:-0.7293 5:0.331346 6:0.0153573 7:-0.250178 8:0.911234 9:-0.389034 10:-0.340284 11:0.952897 12:-0.881572 
-1024 1:-0.204067 2:0.834305 3:-0.371787 4:-0.83561 5:0.0406816 6:0.465413 7:0.365041 8:0.953595 9:0.0129723 10:0.19963 11:0.970395 12:-0.876042 
-1024 1:-0.213332 2:0.831405 3:-0.349272 4:-0.821262 5:0.0799209 6:0.41439 7:0.310755 8:0.953527 9:0.219284 10:0.319397 11:0.985236 12:-0.876346 
-1024 1:-0.102899 2:0.701077 3:-0.35956 4:-0.865329 5:-0.0439474 6:0.351792 7:0.511792 8:0.789293 9:0.242687 10:0.380125 11:0.933837 12:-0.88185 
-1024 1:-0.275562 2:0.843274 3:0.0998493 4:-0.447918 5:0.61342 6:-0.257532 7:-0.417482 8:0.566111 9:-0.533653 10:-0.37518 11:0.880524 12:-0.822316 
-1024 1:-0.519822 2:0.737838 3:-0.7946 4:-0.903067 5:-0.452805 6:0.746792 7:0.84709 8:0.917952 9:0.354321 10:0.918323 11:0.905677 12:-0.689172 
-1024 1:-0.463867 2:0.62501 3:-0.818672 4:-0.916164 5:-0.538735 6:0.906428 7:0.873936 8:0.891357 9:0.898211 10:0.94617 11:0.929931 12:-0.750362 
-1024 1:-0.543852 2:0.71572 3:-0.666371 4:-0.84852 5:-0.334432 6:0.52885 7:0.534644 8:0.88224 9:-0.554055 10:0.332748 11:0.774718 12:-0.681131 
-1024 1:-0.44336 2:0.76925 3:-0.785464 4:-0.905807 5:-0.461727 6:0.810782 7:0.857874 8:0.938104 9:0.440824 10:0.938177 11:0.925362 12:-0.655103 
-1024 1:-0.466566 2:0.790516 3:-0.7064 4:-0.855243 5:-0.341621 6:0.648891 7:0.584555 8:0.9124 9:0.0831639 10:0.646593 11:0.919972 12:-0.687112 
-1024 1:-0.512099 2:0.616003 3:-0.629889 4:-0.876409 5:-0.282633 6:0.348119 7:0.635009 8:0.680239 9:0.153485 10:0.350778 11:0.884859 12:-0.719792 
726.3342023418026 1:-0.842853 2:-0.27952 3:-0.781974 4:-0.518693 5:-0.539208 6:-0.501297 7:-0.190363 8:0.228665 9:-0.572934 10:-0.198482 11:0.615521 12:-0.559639 
1024 1:-0.163798 2:0.775663 3:-0.363105 4:-0.804821 5:-0.140973 6:0.892154 7:0.900226 8:0.93735 9:0.775118 10:0.883283 11:0.954811 12:-0.837614 
1024 1:-0.167004 2:0.826006 3:-0.384226 4:-0.783175 5:-0.0400406 6:0.849957 7:0.810204 8:0.791281 9:0.836156 10:0.886843 11:0.949772 12:-0.865903 
1024 1:-0.33023 2:0.768324 3:-0.0351665 4:-0.6297 5:0.328268 6:0.731279 7:0.267094 8:0.946124 9:-0.186493 10:-0.206571 11:0.892476 12:-0.82373 
1024 1:-0.119579 2:0.79485 3:-0.358806 4:-0.809714 5:-0.129663 6:0.92109 7:0.914575 8:0.957091 9:0.832345 10:0.895684 11:0.967348 12:-0.819488 
1024 1:-0.321718 2:0.794618 3:-0.162109 4:-0.646534 5:0.213923 6:0.801899 7:0.356784 8:0.94818 9:0.582521 10:0.254788 11:0.985744 12:-0.823045 
1024 1:-0.196933 2:0.863302 3:0.196261 4:-0.652318 5:0.399944 6:0.45249 7:0.2593 8:0.759888 9:0.220305 10:0.0410864 11:0.921026 12:-0.828499 
-1024 1:-0.439745 2:-0.576235 3:-0.136545 4:0.246025 5:-0.0602526 6:-0.505503 7:-0.543935 8:-0.496676 9:-0.36394 10:-0.606224 11:0.714258 12:-0.840804 
1024 1:-0.396142 2:0.714173 3:-0.688859 4:-0.898107 5:-0.620724 6:0.669024 7:0.895758 8:0.854 9:0.204678 10:0.828975 11:0.866385 12:-0.507446 
1024 1:-0.0479509 2:0.637622 3:-0.757977 4:-0.931315 5:-0.716557 6:0.951915 7:0.985394 8:0.878744 9:0.985599 10:0.998342 11:0.950319 12:-0.806995 
1024 1:-0.419276 2:0.709743 3:-0.544839 4:-0.835882 5:-0.493726 6:0.337439 7:0.605179 8:0.853109 9:-0.565859 10:0.425769 11:0.766477 12:-0.515506 
1024 1:-0.417499 2:0.691551 3:-0.695739 4:-0.904754 5:-0.625713 6:0.686123 7:0.911162 8:0.8455 9:0.252499 10:0.836943 11:0.857402 12:-0.500226 
1024 1:-0.245257 2:0.833819 3:-0.575929 4:-0.827366 5:-0.535654 6:0.485767 7:0.669439 8:0.88882 9:0.0889023 10:0.721979 11:0.907278 12:-0.513902 
1024 1:-0.307475 2:0.665085 3:-0.530944 4:-0.872027 5:-0.421747 6:0.284941 7:0.727298 8:0.698334 9:0.212029 10:0.395651 11:0.854434 12:-0.643159 
1024 1:-0.0752959 2:0.717753 3:-0.560216 4:-0.712122 5:-0.431402 6:0.160129 7:0.539498 8:0.622592 9:-0.351781 10:0.693707 11:0.742691 12:-0.449718 
-559.3272924670854 1:-0.111052 2:0.93365 3:-0.317425 4:-0.837176 5:0.175047 6:0.817249 7:0.838877 8:0.895264 9:0.562377 10:0.764681 11:0.969067 12:-0.861076 
-1024 1:-0.207948 2:0.950594 3:-0.24227 4:-0.802616 5:0.326952 6:0.743921 7:0.687705 8:0.818973 9:0.163201 10:0.390738 11:0.918292 12:-0.883479 
242.4187287536869 1:-0.312128 2:0.913621 3:0.127277 4:-0.671435 5:0.867339 6:0.556743 7:0.224204 8:0.95901 9:-0.196997 10:-0.190454 11:0.96602 12:-0.887054 
-1024 1:-0.0561037 2:0.944831 3:-0.315339 4:-0.839118 5:0.145756 6:0.856614 7:0.874748 8:0.917952 9:0.63197 10:0.813428 11:0.975706 12:-0.872386 
-1024 1:-0.261088 2:0.957584 3:-0.0506595 4:-0.722976 5:0.655873 6:0.681517 7:0.427594 8:0.96751 9:0.143232 10:0.297754 11:0.983908 12:-0.893007 
1024 1:-0.311951 2:0.963824 3:0.163523 4:-0.695508 5:0.71891 6:0.488542 7:0.252316 8:0.800192 9:-0.129213 10:-0.0607103 11:0.918527 12:-0.866274 
-1024 1:-0.00566119 2:0.556399 3:-0.122256 4:-0.523669 5:0.542597 6:0.255142 7:0.210007 8:0.334362 9:0.391788 10:0.318083 11:0.874861 12:-0.834909 
1024 1:0.095059 2:0.829168 3:-0.642907 4:-0.914147 5:-0.310615 6:0.628356 7:0.862125 8:0.872301 9:0.0469965 10:0.864952 11:0.888726 12:-0.620195 
-1024 1:0.531909 2:0.864659 3:-0.678209 4:-0.940614 5:-0.281149 6:0.819047 7:0.959878 8:0.886079 9:0.513749 10:0.97655 11:0.929619 12:-0.778668 
1024 1:-0.140656 2:0.834115 3:-0.348939 4:-0.779689 5:0.143407 6:0.148124 7:0.108715 8:0.837892 9:-0.564854 10:0.0348552 11:0.821313 12:-0.692666 
470.9101205618514 1:0.147118 2:0.835927 3:-0.644914 4:-0.91815 5:-0.298971 6:0.623732 7:0.881154 8:0.880526 9:0.0784212 10:0.88541 11:0.899311 12:-0.636915 
1024 1:0.14415 2:0.933329 3:-0.467288 4:-0.839042 5:0.00243816 6:0.425527 7:0.509285 8:0.896772 9:0.17751 10:0.507186 11:0.961685 12:-0.693323 
1024 1:0.232783 2:0.849813 3:-0.36563 4:-0.870186 5:-0.016245 6:0.134585 7:0.530127 8:0.747618 9:-0.0828229 10:0.275381 11:0.903802 12:-0.739309 
-1024 1:0.675633 2:0.119765 3:-0.242352 4:-0.668453 5:0.198504 6:-0.025029 7:0.280457 8:0.528343 9:-0.29037 10:-0.211208 11:0.846427 12:-0.77255 
-1024 1:-0.148804 2:0.870879 3:-0.588521 4:-0.891614 5:-0.191093 6:0.587536 7:0.891701 8:0.854 9:-0.0890359 10:0.898286 11:0.814283 12:-0.742883 
-1024 1:-0.0242751 2:0.709859 3:-0.681175 4:-0.907918 5:-0.333515 6:0.943253 7:0.925382 8:0.8747 9:0.953543 10:0.980773 11:0.929228 12:-0.869995 
-1024 1:-0.339545 2:0.861842 3:-0.4282 4:-0.810995 5:-0.00923925 6:0.266841 7:0.442346 8:0.796559 9:-0.602847 10:0.451392 11:0.699377 12:-0.787649 
-1024 1:-0.144618 2:0.834673 3:-0.602427 4:-0.895647 5:-0.213398 6:0.623285 7:0.891812 8:0.845089 9:-0.00861207 10:0.858154 11:0.803035 12:-0.736014 
-1024 1:-0.135929 2:0.940974 3:-0.48749 4:-0.840587 5:-0.0706981 6:0.492578 7:0.679537 8:0.877168 9:0.415824 10:0.646887 11:0.914348 12:-0.776973 
-1024 1:-0.582945 2:0.843579 3:-0.420269 4:-0.785276 5:-0.00573871 6:0.28778 7:0.34952 8:0.673453 9:0.108419 10:0.0909477 11:0.85045 12:-0.797914 
-1024 1:0.0280057 2:-0.0119795 3:-0.189176 4:-0.385495 5:0.0959565 6:-0.173627 7:-0.071346 8:0.350607 9:-0.468776 10:-0.482243 11:0.882829 12:-0.856971 
-1024 1:-0.496119 2:0.74873 3:-0.865927 4:-0.939577 5:-0.736158 6:0.514884 7:0.92706 8:0.843718 9:0.311463 10:0.937182 11:0.867362 12:-0.593664 
-1024 1:-0.119441 2:0.84226 3:-0.85927 4:-0.948179 5:-0.706193 6:0.891495 7:0.96376 8:0.917609 9:0.850903 10:0.992857 11:0.950085 12:-0.690034 
-1024 1:-0.479793 2:0.754406 3:-0.739281 4:-0.87702 5:-0.503378 6:0.398769 7:0.584218 8:0.809651 9:-0.63968 10:0.557098 11:0.680551 12:-0.608439 
-1024 1:-0.439893 2:0.73542 3:-0.869245 4:-0.943019 5:-0.74394 6:0.565785 7:0.936738 8:0.847556 9:0.412103 10:0.94634 11:0.876736 12:-0.606816 
-1024 1:-0.319095 2:0.84796 3:-0.77417 4:-0.881209 5:-0.54247 6:0.574231 7:0.671924 8:0.889711 9:0.0023875 10:0.902514 11:0.85045 12:-0.656938 
1024 1:-0.419116 2:0.74405 3:-0.618931 4:-0.882175 5:-0.214967 6:0.0800523 7:0.601537 8:0.635959 9:-0.0839037 10:0.266437 11:0.886226 12:-0.703224 
-1024 1:-0.376511 2:-0.356537 3:-0.877193 4:-0.794656 5:-0.727735 6:-0.47246 7:0.352336 8:0.409761 9:-0.0960164 10:0.57516 11:0.820767 12:-0.61564 
1024 1:-0.360644 2:0.763151 3:-0.78648 4:-0.912633 5:-0.583849 6:0.402723 7:0.886904 8:0.832956 9:-0.219215 10:0.894262 11:0.793349 12:-0.823698 
-1024 1:-0.264063 2:0.699266 3:-0.821414 4:-0.929182 5:-0.638348 6:0.897284 7:0.927303 8:0.837549 9:0.954257 10:0.98115 11:0.935439 12:-0.931174 
1024 1:-0.40758 2:0.785993 3:-0.581291 4:-0.80272 5:-0.306952 6:0.264895 7:0.22379 8:0.773254 9:-0.816409 10:0.259577 11:0.605171 12:-0.795063 
1024 1:-0.238337 2:0.760911 3:-0.799254 4:-0.920617 5:-0.607392 6:0.566025 7:0.917889 8:0.884159 9:0.197043 10:0.944631 11:0.868104 12:-0.804527 
1024 1:-0.255819 2:0.812994 3:-0.656048 4:-0.800562 5:-0.364172 6:0.480218 7:0.359134 8:0.878264 9:0.0787162 10:0.704454 11:0.842326 12:-0.790808 
1024 1:-0.240535 2:0.748863 3:-0.472241 4:-0.825237 5:-0.272311 6:0.0555956 7:0.369841 8:0.665844 9:-0.0969244 10:-0.0224134 11:0.857285 12:-0.788511 
-1024 1:-0.20592 2:0.287435 3:-0.654434 4:-0.589847 5:-0.433333 6:0.0203917 7:-0.230485 8:0.315717 9:-0.0722289 10:-0.349285 11:0.636339 12:-0.711005 
1024 1:-0.449845 2:0.953462 3:-0.502327 4:-0.767717 5:-0.133917 6:0.873822 7:0.950283 8:0.932758 9:0.844278 10:0.96236 11:0.953913 12:-0.710696 
1024 1:-0.526926 2:0.872715 3:-0.533329 4:-0.731968 5:-0.139374 6:0.892432 7:0.961124 8:0.875523 9:0.900266 10:0.969002 11:0.93415 12:-0.775884 
1024 1:-0.521318 2:0.923437 3:-0.348629 4:-0.66177 5:0.0386037 6:0.660223 7:0.820279 8:0.873398 9:-0.140955 10:0.676886 11:0.794286 12:-0.686696 
-1024 1:-0.341914 2:0.958785 3:-0.477374 4:-0.7427 5:-0.103335 6:0.889384 7:0.992638 8:0.961067 9:0.841526 10:0.992958 11:0.968442 12:-0.711584 
1024 1:-0.475804 2:0.904348 3:-0.382461 4:-0.651254 5:0.00908501 6:0.856363 7:0.837224 8:0.927411 9:0.529415 10:0.779022 11:0.962818 12:-0.711918 
1024 1:-0.639033 2:0.927229 3:-0.214851 4:-0.633719 5:0.193909 6:0.660517 7:0.785449 8:0.812941 9:0.612957 10:0.659519 11:0.951843 12:-0.675548 
1024 1:-0.47168 2:-0.472348 3:-0.399319 4:-0.397299 5:-0.225766 6:-0.444432 7:-0.280434 8:0.0658715 9:-0.270115 10:-0.0912578 11:0.765227 12:-0.727592 
-1024 1:-0.399752 2:0.735794 3:-0.545489 4:-0.850098 5:-0.19654 6:0.874554 7:0.7614 8:0.659058 9:0.717097 10:0.689699 11:0.800262 12:-0.816048 
-1024 1:-0.242801 2:0.773458 3:-0.573206 4:-0.883543 5:-0.238311 6:0.835791 7:0.887973 8:0.795599 9:0.504275 10:0.870706 11:0.936142 12:-0.877314 
-1024 1:-0.444207 2:0.671214 3:-0.347816 4:-0.780621 5:0.0186335 6:0.749693 7:0.417965 8:0.954623 9:-0.132161 10:0.0692567 11:0.88525 12:-0.838144 
1024 1:-0.3505 2:0.749605 3:-0.546365 4:-0.857815 5:-0.203612 6:0.87835 7:0.795724 8:0.701282 9:0.747351 10:0.718871 11:0.824399 12:-0.811632 
-1024 1:-0.456607 2:0.710162 3:-0.426361 4:-0.78808 5:-0.083966 6:0.816255 7:0.434573 8:0.919803 9:0.417262 10:0.366392 11:0.97762 12:-0.838964 
-1024 1:-0.573911 2:-0.157207 3:-0.343836 4:-0.204681 5:-0.0333066 6:-0.300814 7:-0.268014 8:0.0452396 9:-0.243341 10:-0.57796 11:0.767649 12:-0.823368 
1024 1:-0.269676 2:0.908503 3:-0.343649 4:-0.749712 5:-0.187638 6:0.724925 7:0.954469 8:0.887929 9:0.292213 10:0.947954 11:0.852989 12:-0.706338 
-276.8764803550096 1:-0.493554 2:0.783169 3:-0.494196 4:-0.747463 5:-0.335081 6:0.827269 7:0.929076 8:0.796422 9:0.883102 10:0.964207 11:0.908997 12:-0.865528 
1024 1:-0.360107 2:0.932125 3:-0.145378 4:-0.668202 5:0.0380232 6:0.375311 7:0.641019 8:0.828158 9:-0.714845 10:0.25604 11:0.720195 12:-0.739022 
1024 1:-0.196141 2:0.933825 3:-0.325819 4:-0.736062 5:-0.171473 6:0.66118 7:0.964704 8:0.910823 9:0.0217387 10:0.924626 11:0.865409 12:-0.706899 
1024 1:-0.307672 2:0.870689 3:-0.278168 4:-0.672356 5:-0.111028 6:0.751506 7:0.858183 8:0.90013 9:0.170831 10:0.773765 11:0.905091 12:-0.790419 
-71.40872708239813 1:-0.662268 2:0.84262 3:-0.151517 4:-0.641591 5:0.012096 6:0.585257 7:0.727267 8:0.781205 9:0.440001 10:0.190374 11:0.905755 12:-0.729046 
-374.5857102018949 1:-0.200081 2:-0.628045 3:-0.459368 4:-0.350968 5:-0.470552 6:-0.59632 7:-0.365738 8:-0.488176 9:0.0366883 10:0.788143 11:0.729568 12:-0.794478 
-1024 1:-0.308614 2:0.826542 3:-0.718833 4:-0.91549 5:-0.596836 6:0.617262 7:0.803006 8:0.896772 9:-0.0524559 10:0.704737 11:0.919152 12:-0.743974 
-1024 1:0.0463661 2:0.800411 3:-0.726908 4:-0.924451 5:-0.57621 6:0.759535 7:0.835866 8:0.903557 9:0.206814 10:0.804354 11:0.946804 12:-0.868553 
1024 1:-0.365994 2:0.792356 3:-0.448736 4:-0.789531 5:-0.0952919 6:0.190563 7:0.120511 8:0.874289 9:-0.696838 10:-0.2336 11:0.865682 12:-0.767193 
1024 1:-0.271295 2:0.796357 3:-0.722997 4:-0.918815 5:-0.596939 6:0.61754 7:0.794403 8:0.878333 9:-0.073584 10:0.616277 11:0.911067 12:-0.731927 
1024 1:-0.146043 2:0.923176 3:-0.578008 4:-0.860339 5:-0.322138 6:0.427974 7:0.557547 8:0.923024 9:-0.052555 10:0.656632 11:0.953483 12:-0.774486 
-1024 1:-0.197142 2:0.7551 3:-0.477318 4:-0.87497 5:-0.126698 6:0.146506 7:0.539967 8:0.740147 9:-0.181529 10:0.28867 11:0.907435 12:-0.799262 
-1024 1:0.189086 2:0.44579 3:-0.448668 4:-0.722259 5:-0.0690492 6:-0.0646284 7:0.369289 8:0.574748 9:-0.390306 10:-0.0396922 11:0.87408 12:-0.712123 
1024 1:-0.215355 2:0.868702 3:-0.174334 4:-0.735416 5:0.145071 6:0.945475 7:0.724171 8:0.990746 9:0.726308 10:0.79872 11:0.993868 12:-0.847748 
1024 1:-0.353269 2:0.834705 3:-0.183437 4:-0.731101 5:0.126935 6:0.790647 7:0.620992 8:0.784906 9:-0.0132465 10:0.154528 11:0.860839 12:-0.878827 
1024 1:-0.354184 2:0.813722 3:0.157281 4:-0.586636 5:0.458727 6:0.747838 7:0.202522 8:0.95476 9:-0.138017 10:-0.0434751 11:0.945828 12:-0.847316 
1024 1:-0.164174 2:0.864175 3:-0.174432 4:-0.752262 5:0.140585 6:0.953834 7:0.783965 8:0.992666 9:0.781993 10:0.82714 11:0.993399 12:-0.847076 
-1024 1:-0.376056 2:0.856834 3:0.0535955 4:-0.584672 5:0.45802 6:0.804255 7:0.186386 8:0.969909 9:0.00510456 10:0.21992 11:0.975199 12:-0.849612 
1024 1:-0.166212 2:0.901487 3:0.225446 4:-0.676757 5:0.386489 6:0.570072 7:0.405037 8:0.80499 9:0.164828 10:0.178989 11:0.928486 12:-0.860322 
-559.2308984084461 1:-0.250019 2:0.592781 3:0.023606 4:-0.422378 5:0.488088 6:0.573834 7:0.0422793 8:0.471999 9:0.365535 10:0.0245563 11:0.908606 12:-0.785613 
1024 1:-0.269627 2:0.850488 3:-0.724895 4:-0.916597 5:-0.485369 6:0.49036 7:0.856705 8:0.874015 9:0.21653 10:0.88925 11:0.894038 12:-0.776305 
1024 1:0.0445697 2:0.77364 3:-0.734202 4:-0.92562 5:-0.49287 6:0.7551 7:0.963897 8:0.874974 9:0.630366 10:0.956861 11:0.934306 12:-0.836105 
1024 1:-0.348938 2:0.852397 3:-0.497724 4:-0.778075 5:-0.278249 6:0.105212 7:0.283907 8:0.792309 9:-0.463111 10:0.281778 11:0.803933 12:-0.762691 
1024 1:-0.250021 2:0.822603 3:-0.728024 4:-0.910386 5:-0.499798 6:0.516169 7:0.854909 8:0.869559 9:0.290529 10:0.867918 11:0.90142 12:-0.779668 
1024 1:-0.111101 2:0.944071 3:-0.599968 4:-0.827678 5:-0.304172 6:0.396858 7:0.645556 8:0.879498 9:0.241968 10:0.595158 11:0.954733 12:-0.75488 
1024 1:-0.313457 2:0.763819 3:-0.43998 4:-0.821831 5:-0.18855 6:0.179653 7:0.527754 8:0.686476 9:0.0792923 10:0.0172203 11:0.922042 12:-0.7588 
-1024 1:-0.165257 2:0.468768 3:-0.555301 4:-0.45335 5:-0.213734 6:-0.031605 7:-0.145815 8:0.324354 9:-0.485392 10:-0.130924 11:0.722772 12:-0.699819 
-1024 1:0.00576208 2:0.708127 3:-0.826262 4:-0.958777 5:-0.622636 6:0.956789 7:0.97437 8:0.937761 9:0.968778 10:0.99246 11:0.965552 12:-0.799186 
-1024 1:-0.398962 2:0.755216 3:-0.634237 4:-0.863848 5:-0.247643 6:0.282489 7:0.49612 8:0.817054 9:-0.661251 10:0.445664 11:0.662976 12:-0.569161 
1024 1:-0.266661 2:0.75148 3:-0.819638 4:-0.942296 5:-0.520095 6:0.662337 7:0.925293 8:0.654192 9:0.423141 10:0.957316 11:0.815689 12:-0.886225 
1024 1:-0.164369 2:0.818432 3:-0.708816 4:-0.898724 5:-0.381104 6:0.537407 7:0.685961 8:0.900542 9:0.176076 10:0.662935 11:0.93661 12:-0.617476 
1024 1:-0.329133 2:0.698045 3:-0.603651 4:-0.888983 5:-0.22943 6:0.236743 7:0.577219 8:0.749126 9:-0.122364 10:0.121057 11:0.905833 12:-0.671786 
-1024 1:0.225435 2:0.888893 3:-0.751182 4:-0.921946 5:-0.505844 6:0.934178 7:0.887816 8:0.940777 9:0.553666 10:0.288085 11:0.734099 12:-0.645466 
-1024 1:-0.29472 2:0.899109 3:-0.782591 4:-0.907771 5:-0.58292 6:0.489117 7:0.737496 8:0.850298 9:-0.291204 10:0.931394 11:0.789482 12:-0.364253 
-1024 1:0.228317 2:0.747257 3:-0.852433 4:-0.970901 5:-0.714644 6:0.916628 7:0.992487 8:0.892796 9:0.920007 10:0.997092 11:0.941375 12:-0.73313 
-1024 1:-0.283708 2:0.892033 3:-0.643056 4:-0.860774 5:-0.358063 6:0.116127 7:0.376814 8:0.775927 9:-0.806983 10:0.583741 11:0.635831 12:-0.421839 
-1024 1:-0.26406 2:0.869502 3:-0.785264 4:-0.915241 5:-0.593318 6:0.501455 7:0.772292 8:0.854685 9:-0.296751 10:0.926114 11:0.800613 12:-0.360043 
-1024 1:0.304172 2:0.0975081 3:-0.623974 4:-0.541638 5:-0.297672 6:0.136699 7:0.0814323 8:0.552471 9:-0.294382 10:-0.226611 11:0.726483 12:-0.475353 
1024 1:-0.396685 2:0.889467 3:-0.692213 4:-0.900282 5:-0.453262 6:0.588466 7:0.721632 8:0.896634 9:-0.0371446 10:0.813683 11:0.875954 12:-0.494674 
-1024 1:-0.363764 2:0.628275 3:-0.822424 4:-0.93862 5:-0.586365 6:0.919674 7:0.900872 8:0.836315 9:0.968421 10:0.972399 11:0.931923 12:-0.803506 
1024 1:-0.441416 2:0.782529 3:-0.526472 4:-0.804683 5:-0.235263 6:0.267028 7:0.153349 8:0.876277 9:-0.453379 10:0.0752812 11:0.833109 12:-0.570197 
-1024 1:-0.356202 2:0.792993 3:-0.723826 4:-0.904946 5:-0.501725 6:0.610172 7:0.732259 8:0.868737 9:0.113102 10:0.791028 11:0.896967 12:-0.483432 
-1024 1:-0.310772 2:0.931573 3:-0.598331 4:-0.855147 5:-0.30035 6:0.446156 7:0.440528 8:0.918706 9:0.114874 10:0.547302 11:0.959459 12:-0.544055 
-1024 1:-0.280282 2:0.752415 3:-0.564684 4:-0.885011 5:-0.298746 6:0.226018 7:0.562164 8:0.674344 9:0.0745772 10:0.314542 11:0.860605 12:-0.613969 
1024 1:-0.674304 2:-0.0584847 3:-0.497774 4:-0.582816 5:-0.320714 6:-0.660965 7:0.0255574 8:0.150661 9:-0.673225 10:-0.301085 11:0.817291 12:-0.528842 
1024 1:0.0830107 2:0.883901 3:-0.676531 4:-0.931462 5:-0.456445 6:0.244885 7:0.865433 8:0.809583 9:-0.191763 10:0.916592 11:0.838538 12:-0.519503 
-1024 1:0.418144 2:0.709305 3:-0.726342 4:-0.94584 5:-0.55896 6:0.90943 7:0.977995 8:0.902255 9:0.901559 10:0.996559 11:0.953522 12:-0.845572 
1024 1:-0.108783 2:0.960528 3:-0.331287 4:-0.788739 5:0.0351106 6:-0.170109 7:0.271102 8:0.71314 9:-0.84287 10:0.267606 11:0.667624 12:-0.534316 
-1024 1:0.149471 2:0.890562 3:-0.683028 4:-0.932703 5:-0.46065 6:0.194642 7:0.842536 8:0.763178 9:-0.208148 10:0.892886 11:0.844357 12:-0.49472 
-1024 1:0.226865 2:0.917703 3:-0.50265 4:-0.850982 5:-0.200949 6:0.310404 7:0.629743 8:0.85962 9:0.111777 10:0.560683 11:0.957701 12:-0.524217 
-1024 1:0.0245285 2:0.777567 3:-0.459319 4:-0.878999 5:-0.261588 6:0.13348 7:0.691044 8:0.708753 9:0.0975673 10:0.415571 11:0.913137 12:-0.574158 
-660.3890679377095 1:0.583198 2:-0.125591 3:-0.404095 4:-0.590374 5:-0.183031 6:0.0501517 7:0.308485 8:0.40839 9:-0.494582 10:-0.134043 11:0.818306 12:-0.69599 
1024 1:-0.320328 2:0.85956 3:-0.682396 4:-0.890257 5:-0.505009 6:0.674372 7:0.938379 8:0.875317 9:0.603997 10:0.92492 11:0.909348 12:-0.686589 
-1024 1:-0.1951 2:0.882988 3:-0.646649 4:-0.868394 5:-0.402822 6:0.787223 7:0.895712 8:0.844677 9:0.641448 10:0.920266 11:0.933017 12:-0.799912 
-1024 1:-0.377045 2:0.871442 3:-0.435703 4:-0.772267 5:-0.153276 6:0.491739 7:0.418154 8:0.887175 9:-0.47771 10:0.238715 11:0.827524 12:-0.714634 
1024 1:-0.176919 2:0.9187 3:-0.642232 4:-0.882523 5:-0.447438 6:0.724015 7:0.93524 8:0.90013 9:0.508467 10:0.915066 11:0.90927 12:-0.687731 
1024 1:-0.301254 2:0.93385 3:-0.533581 4:-0.784769 5:-0.292923 6:0.646772 7:0.594538 8:0.907739 9:0.169891 10:0.764185 11:0.914465 12:-0.729035 
1024 1:-0.343214 2:0.932953 3:-0.31352 4:-0.791234 5:-0.0338334 6:0.294734 7:0.521264 8:0.719995 9:-0.0513198 10:0.454412 11:0.87572 12:-0.745429 
-1024 1:-0.242412 2:-0.591037 3:-0.66356 4:-0.505808 5:-0.531431 6:-0.794692 7:0.0357952 8:-0.214134 9:-0.14894 10:0.155842 11:0.764134 12:-0.743334 
-1024 1:-0.274765 2:0.783694 3:-0.343119 4:-0.78862 5:-0.087412 6:0.885 7:0.684612 8:0.920145 9:0.597855 10:0.516215 11:0.98094 12:-0.840344 
-1024 1:-0.223515 2:0.757768 3:-0.401354 4:-0.816529 5:-0.0605299 6:0.849742 7:0.702549 8:0.78285 9:0.639275 10:0.525868 11:0.891265 12:-0.892454 
-1024 1:-0.395362 2:0.799243 3:0.00252487 4:-0.623842 5:0.483708 6:0.609931 7:-0.010831 8:0.975187 9:-0.0211303 10:-0.331354 11:0.967817 12:-0.874957 
-1024 1:-0.237973 2:0.779954 3:-0.348903 4:-0.802286 5:-0.0910923 6:0.876468 7:0.725503 8:0.919117 9:0.604499 10:0.507675 11:0.983244 12:-0.842412 
-1024 1:-0.343967 2:0.847788 3:-0.089712 4:-0.650833 5:0.337334 6:0.698325 7:0.118756 8:0.983001 9:0.280949 10:0.119885 11:0.988049 12:-0.867769 
1024 1:-0.126344 2:0.832449 3:0.0791277 4:-0.727902 5:0.138007 6:0.455009 7:0.2864 8:0.782302 9:0.173774 10:0.0748448 11:0.916261 12:-0.876599 
1024 1:-0.164142 2:0.513177 3:0.138641 4:-0.116486 5:0.44132 6:0.123093 7:-0.449002 8:0.186853 9:-0.133571 10:-0.259338 11:0.865136 12:-0.823417 
-1024 1:-0.404117 2:0.829156 3:-0.873407 4:-0.952482 5:-0.815331 6:0.395005 7:0.885989 8:0.769827 9:0.255636 10:0.888711 11:0.87533 12:-0.733825 
-1024 1:-0.0430194 2:0.92851 3:-0.861524 4:-0.950708 5:-0.709939 6:0.781416 7:0.964175 8:0.852971 9:0.642935 10:0.977882 11:0.912746 12:-0.829976 
-1024 1:-0.37709 2:0.849685 3:-0.701289 4:-0.876245 5:-0.522133 6:0.33289 7:0.510775 8:0.814861 9:-0.585681 10:0.424221 11:0.724686 12:-0.758784 
1024 1:-0.285453 2:0.883625 3:-0.865011 4:-0.94922 5:-0.777328 6:0.511766 7:0.92632 8:0.81863 9:0.325272 10:0.92879 11:0.897202 12:-0.746834 
-1024 1:-0.192725 2:0.965996 3:-0.778303 4:-0.892665 5:-0.614857 6:0.529242 7:0.671263 8:0.874083 9:0.0648682 10:0.882688 11:0.86826 12:-0.771388 
1024 1:-0.222371 2:0.964514 3:-0.549641 4:-0.840321 5:-0.232651 6:-0.159231 7:0.27041 8:0.62554 9:-0.434657 10:0.103762 11:0.761478 12:-0.787192 
854.1395131555419 1:0.041971 2:-0.593293 3:-0.823509 4:-0.885745 5:-0.712438 6:-0.717375 7:0.443141 8:0.0705326 9:-0.639987 10:-0.103261 11:0.792411 12:-0.631439 
1024 1:-0.398068 2:0.85776 3:-0.597811 4:-0.823113 5:-0.471589 6:0.665867 7:0.760702 8:0.847488 9:0.0503058 10:0.899827 11:0.864628 12:-0.584138 
1024 1:-0.200868 2:0.808536 3:-0.686247 4:-0.876309 5:-0.577222 6:0.891076 7:0.92252 8:0.749674 9:0.893917 10:0.971949 11:0.824594 12:-0.784163 
-1024 1:-0.420347 2:0.842403 3:-0.41735 4:-0.745036 5:-0.253922 6:0.424417 7:0.357156 8:0.876482 9:-0.413158 10:0.372995 11:0.793036 12:-0.667075 
1024 1:-0.322813 2:0.847264 3:-0.592978 4:-0.829621 5:-0.472685 6:0.705353 7:0.777484 8:0.853931 9:0.159299 10:0.861367 11:0.866385 12:-0.598371 
689.8915445493442 1:-0.275151 2:0.906964 3:-0.456411 4:-0.722174 5:-0.358372 6:0.624592 7:0.373432 8:0.934128 9:0.470165 10:0.298588 11:0.975785 12:-0.658451 
1024 1:-0.26362 2:0.808899 3:-0.30062 4:-0.788175 5:-0.295161 6:0.383444 7:0.53348 8:0.759476 9:0.30395 10:0.209562 11:0.908958 12:-0.691698 
1024 1:-0.171407 2:0.191678 3:-0.428688 4:-0.196888 5:-0.277582 6:0.205407 7:-0.244946 8:0.361094 9:0.131884 10:-0.224978 11:0.7614 12:-0.639304 
1024 1:-0.3791 2:0.943303 3:0.138959 4:-0.686775 5:0.244213 6:0.996566 7:0.968875 8:0.998149 9:0.963362 10:0.944739 11:0.998945 12:-0.88969 
1024 1:-0.579893 2:0.882305 3:-0.0732535 4:-0.696246 5:0.148977 6:0.933603 7:0.94898 8:0.834944 9:0.940988 10:0.945786 11:0.901888 12:-0.891001 
1024 1:-0.472384 2:0.947549 3:0.371185 4:-0.61048 5:0.568771 6:0.882408 7:0.785186 8:0.981219 9:0.517434 10:0.509267 11:0.980159 12:-0.896424 
1024 1:-0.364133 2:0.944381 3:0.134284 4:-0.689454 5:0.231976 6:1 7:0.97423 8:1 9:0.980854 10:0.955056 11:1 12:-0.894622 
1024 1:-0.574994 2:0.928903 3:0.283441 4:-0.589296 5:0.413236 6:0.931501 7:0.758784 8:0.978957 9:0.741244 10:0.608076 11:0.992306 12:-0.896458 
-1024 1:-0.632177 2:0.929092 3:0.321995 4:-0.574242 5:0.383136 6:0.910486 7:0.679649 8:0.881212 9:0.753204 10:0.458864 11:0.955553 12:-0.903786 
504.657013590306 1:-0.843714 2:-0.488269 3:0.736579 4:1 5:0.642885 6:-0.233531 7:-0.970916 8:-0.404209 9:-0.117172 10:-0.617228 11:0.634816 12:-0.899107 
1024 1:-0.0547773 2:0.565846 3:-0.70643 4:-0.888688 5:-0.390346 6:0.848778 7:0.506961 8:0.972651 9:-0.176802 10:0.551351 11:0.912512 12:-0.726215 
1024 1:0.449724 2:0.483464 3:-0.791036 4:-0.964703 5:-0.554147 6:0.883155 7:0.957108 8:0.899171 9:0.706777 10:0.947079 11:0.958834 12:-0.825856 
1024 1:-0.0606612 2:0.535642 3:-0.49974 4:-0.814403 5:-0.162746 6:0.478229 7:0.00799785 8:0.952567 9:-0.510004 10:-0.26471 11:0.864042 12:-0.72065 
1024 1:0.092229 2:0.628486 3:-0.605196 4:-0.872372 5:-0.258877 6:0.618354 7:0.364929 8:0.968812 9:0.129674 10:0.588998 11:0.961412 12:-0.721704 
1024 1:0.532554 2:0.558994 3:-0.557381 4:-0.924596 5:-0.37571 6:0.417999 7:0.728785 8:0.840154 9:0.110724 10:0.649831 11:0.91095 12:-0.725459 
1024 1:0.240608 2:-0.14489 3:-0.407179 4:-0.494394 5:-0.194702 6:-0.289857 7:0.0459101 8:0.337103 9:-0.626542 10:-0.444316 11:0.873963 12:-0.710325 
1024 1:-0.269176 2:0.865501 3:-0.605891 4:-0.865783 5:-0.345597 6:0.86377 7:0.70644 8:0.936733 9:0.31003 10:0.912489 11:0.910754 12:-0.666918 
-71.94118465503372 1:-0.113813 2:0.850305 3:-0.645439 4:-0.884984 5:-0.373042 6:0.846467 7:0.773942 8:0.802591 9:0.443866 10:0.91375 11:0.864042 12:-0.778566 
-1024 1:-0.394134 2:0.820076 3:-0.383219 4:-0.76379 5:-0.0412224 6:0.542633 7:0.150058 8:0.927891 9:-0.0515964 10:0.190156 11:0.871424 12:-0.711151 
1024 1:-0.194362 2:0.866464 3:-0.59914 4:-0.875152 5:-0.345067 6:0.89184 7:0.754324 8:0.953458 9:0.468329 10:0.908978 11:0.936649 12:-0.675837 
1024 1:-0.304923 2:0.84014 3:-0.462895 4:-0.799273 5:-0.21812 6:0.675265 7:0.313125 8:0.946467 9:0.443788 10:0.384227 11:0.97723 12:-0.725633 
-1024 1:-0.0938655 2:0.862549 3:-0.291317 4:-0.83042 5:-0.0534302 6:0.271219 7:0.38975 8:0.725752 9:0.124874 10:0.112584 11:0.895522 12:-0.719122 
1024 1:0.0186643 2:0.808695 3:-0.289911 4:-0.753044 5:0.165834 6:0.374411 7:0.206024 8:0.672767 9:0.0777137 10:0.248515 11:0.898686 12:-0.657528 
1024 1:-0.448725 2:0.745425 3:-0.808578 4:-0.917673 5:-0.439732 6:0.609166 7:0.89751 8:0.560902 9:0.325125 10:0.931714 11:0.759486 12:-0.884977 
1024 1:-0.290576 2:0.653158 3:-0.810929 4:-0.930411 5:-0.573081 6:0.939039 7:0.921671 8:0.912811 9:0.953481 10:0.978378 11:0.955475 12:-0.800118 
1024 1:-0.46225 2:0.728193 3:-0.648068 4:-0.861823 5:-0.267739 6:0.425029 7:0.526241 8:0.812393 9:-0.835815 10:0.393074 11:0.588533 12:-0.620125 
1024 1:-0.336104 2:0.743178 3:-0.813172 4:-0.925733 5:-0.456751 6:0.755191 7:0.918055 8:0.601823 9:0.663567 10:0.956795 11:0.819283 12:-0.886109 
1024 1:-0.345596 2:0.736064 3:-0.71346 4:-0.874663 5:-0.39012 6:0.643526 7:0.669351 8:0.905751 9:0.00374257 10:0.847368 11:0.813736 12:-0.657452 
1024 1:-0.509616 2:0.658141 3:-0.645307 4:-0.87602 5:-0.311635 6:0.445902 7:0.607898 8:0.756803 9:0.21836 10:0.118073 11:0.871736 12:-0.710345 
1024 1:-0.369998 2:-0.564076 3:-0.809493 4:-0.647916 5:-0.615646 6:-0.296118 7:0.258474 8:0.250942 9:0.409273 10:-0.587436 11:0.609467 12:-0.669577 
1024 1:-0.330127 2:0.609065 3:-0.623851 4:-0.896992 5:-0.655645 6:0.328043 7:0.475778 8:0.917883 9:-0.258491 10:0.330684 11:0.911965 12:-0.716311 
-1024 1:0.0130807 2:0.451672 3:-0.799188 4:-0.958553 5:-0.778555 6:0.762934 7:0.912245 8:0.85962 9:0.463432 10:0.818403 11:0.923253 12:-0.796275 
-1024 1:-0.146961 2:0.927746 3:-0.102934 4:-0.786091 5:-0.0910997 6:-0.327464 7:-0.321171 8:0.841182 9:-0.893795 10:-0.351527 11:0.825414 12:-0.737019 
-1024 1:-0.163572 2:0.74666 3:-0.501015 4:-0.885126 5:-0.52081 6:0.119965 7:0.352013 8:0.892316 9:-0.572747 10:0.15349 11:0.892632 12:-0.711098 
-1024 1:-0.130052 2:0.749535 3:-0.530003 4:-0.877801 5:-0.517306 6:0.121018 7:0.390694 8:0.91048 9:-0.17933 10:0.525462 11:0.906341 12:-0.729111 
-1024 1:-0.297688 2:0.64169 3:-0.375441 4:-0.857388 5:-0.252927 6:-0.184255 7:0.122524 8:0.712729 9:-0.337129 10:-0.0339295 11:0.849942 12:-0.725333 
-1024 1:-0.446444 2:0.624555 3:-0.443486 4:-0.732851 5:-0.253092 6:-0.021773 7:-0.22174 8:0.472685 9:-0.553322 10:-0.380398 11:0.572168 12:-0.552206 
-1024 1:-0.224839 2:0.888029 3:-0.66985 4:-0.904311 5:-0.271776 6:0.310385 7:0.66349 8:0.878607 9:-0.334193 10:0.743812 11:0.864589 12:-0.655947 
-1024 1:-0.20577 2:0.498103 3:-0.82122 4:-0.948556 5:-0.592859 6:0.838119 7:0.923692 8:0.811022 9:0.706842 10:0.93114 11:0.826078 12:-0.70577 
1024 1:-0.344862 2:0.857619 3:-0.512679 4:-0.836784 5:-0.0568611 6:0.00159838 7:0.116889 8:0.850504 9:-0.741703 10:0.144787 11:0.804011 12:-0.671374 
-1024 1:-0.202645 2:0.867848 3:-0.689302 4:-0.910702 5:-0.331185 6:0.360788 7:0.700287 8:0.881212 9:-0.343508 10:0.720869 11:0.865643 12:-0.656941 
-1024 1:-0.170774 2:0.876164 3:-0.61341 4:-0.865477 5:-0.184567 6:0.236193 7:0.427097 8:0.906231 9:0.0502782 10:0.584088 11:0.93661 12:-0.673947 
-1024 1:-0.238738 2:0.65968 3:-0.551191 4:-0.877975 5:-0.222355 6:0.0665154 7:0.421576 8:0.621633 9:-0.0455723 10:0.221682 11:0.880719 12:-0.688605 
-1024 1:-0.527261 2:0.707137 3:-0.626351 4:-0.550508 5:-0.205129 6:0.0278632 7:-0.341709 8:0.0824594 9:-0.337422 10:-0.309523 11:0.31111 12:-0.380341 
1024 1:-0.529611 2:0.704653 3:-0.858232 4:-0.9213 5:-0.735316 6:0.555078 7:0.965816 8:0.872507 9:0.485753 10:0.96163 11:0.89974 12:-0.587505 
-1024 1:-0.355562 2:0.830482 3:-0.842753 4:-0.912561 5:-0.691951 6:0.804127 7:0.953848 8:0.80403 9:0.771638 10:0.977062 11:0.88236 12:-0.792048 
-1024 1:-0.51518 2:0.721109 3:-0.722065 4:-0.844596 5:-0.553984 6:0.569478 7:0.655654 8:0.848105 9:-0.374993 10:0.642068 11:0.736677 12:-0.600298 
-1024 1:-0.484727 2:0.69033 3:-0.857399 4:-0.924597 5:-0.738565 6:0.579838 7:0.962991 8:0.870862 9:0.517047 10:0.961161 11:0.898803 12:-0.563295 
1024 1:-0.399294 2:0.864235 3:-0.740771 4:-0.813462 5:-0.578255 6:0.693611 7:0.594561 8:0.916101 9:0.217307 10:0.826846 11:0.889703 12:-0.621557 
774.0367588126169 1:-0.579662 2:0.767151 3:-0.497203 4:-0.762519 5:-0.252959 6:0.129799 7:0.266282 8:0.634999 9:-0.0388983 10:-0.19443 11:0.901107 12:-0.641791 
